{"learner":{"attributes":{"best_iteration":"249","best_ntree_limit":"250","scikit_learn":"{\"use_label_encoder\": null, \"n_estimators\": 250, \"objective\": \"multi:softprob\", \"max_depth\": 3, \"max_leaves\": null, \"max_bin\": null, \"grow_policy\": null, \"learning_rate\": 0.3, \"verbosity\": 0, \"booster\": null, \"tree_method\": \"hist\", \"gamma\": null, \"min_child_weight\": null, \"max_delta_step\": null, \"subsample\": null, \"sampling_method\": null, \"colsample_bytree\": null, \"colsample_bylevel\": null, \"colsample_bynode\": null, \"reg_alpha\": null, \"reg_lambda\": null, \"scale_pos_weight\": 2, \"base_score\": null, \"missing\": NaN, \"num_parallel_tree\": null, \"random_state\": null, \"n_jobs\": null, \"monotone_constraints\": null, \"interaction_constraints\": null, \"importance_type\": null, \"gpu_id\": null, \"validate_parameters\": null, \"predictor\": null, \"enable_categorical\": false, \"feature_types\": null, \"max_cat_to_onehot\": null, \"max_cat_threshold\": null, \"eval_metric\": null, \"early_stopping_rounds\": null, \"callbacks\": null, \"classes_\": [0, 1, 2, 3, 4, 5, 6, 7, 8, 9, 10, 11, 12, 13, 14, 15, 16, 17, 18, 19, 20, 21], \"n_classes_\": 22, \"_estimator_type\": \"classifier\"}"},"feature_names":[],"feature_types":[],"gradient_booster":{"model":{"gbtree_model_param":{"num_parallel_tree":"1","num_trees":"5500","size_leaf_vector":"0"},"tree_info":[0,1,2,3,4,5,6,7,8,9,10,11,12,13,14,15,16,17,18,19,20,21,0,1,2,3,4,5,6,7,8,9,10,11,12,13,14,15,16,17,18,19,20,21,0,1,2,3,4,5,6,7,8,9,10,11,12,13,14,15,16,17,18,19,20,21,0,1,2,3,4,5,6,7,8,9,10,11,12,13,14,15,16,17,18,19,20,21,0,1,2,3,4,5,6,7,8,9,10,11,12,13,14,15,16,17,18,19,20,21,0,1,2,3,4,5,6,7,8,9,10,11,12,13,14,15,16,17,18,19,20,21,0,1,2,3,4,5,6,7,8,9,10,11,12,13,14,15,16,17,18,19,20,21,0,1,2,3,4,5,6,7,8,9,10,11,12,13,14,15,16,17,18,19,20,21,0,1,2,3,4,5,6,7,8,9,10,11,12,13,14,15,16,17,18,19,20,21,0,1,2,3,4,5,6,7,8,9,10,11,12,13,14,15,16,17,18,19,20,21,0,1,2,3,4,5,6,7,8,9,10,11,12,13,14,15,16,17,18,19,20,21,0,1,2,3,4,5,6,7,8,9,10,11,12,13,14,15,16,17,18,19,20,21,0,1,2,3,4,5,6,7,8,9,10,11,12,13,14,15,16,17,18,19,20,21,0,1,2,3,4,5,6,7,8,9,10,11,12,13,14,15,16,17,18,19,20,21,0,1,2,3,4,5,6,7,8,9,10,11,12,13,14,15,16,17,18,19,20,21,0,1,2,3,4,5,6,7,8,9,10,11,12,13,14,15,16,17,18,19,20,21,0,1,2,3,4,5,6,7,8,9,10,11,12,13,14,15,16,17,18,19,20,21,0,1,2,3,4,5,6,7,8,9,10,11,12,13,14,15,16,17,18,19,20,21,0,1,2,3,4,5,6,7,8,9,10,11,12,13,14,15,16,17,18,19,20,21,0,1,2,3,4,5,6,7,8,9,10,11,12,13,14,15,16,17,18,19,20,21,0,1,2,3,4,5,6,7,8,9,10,11,12,13,14,15,16,17,18,19,20,21,0,1,2,3,4,5,6,7,8,9,10,11,12,13,14,15,16,17,18,19,20,21,0,1,2,3,4,5,6,7,8,9,10,11,12,13,14,15,16,17,18,19,20,21,0,1,2,3,4,5,6,7,8,9,10,11,12,13,14,15,16,17,18,19,20,21,0,1,2,3,4,5,6,7,8,9,10,11,12,13,14,15,16,17,18,19,20,21,0,1,2,3,4,5,6,7,8,9,10,11,12,13,14,15,16,17,18,19,20,21,0,1,2,3,4,5,6,7,8,9,10,11,12,13,14,15,16,17,18,19,20,21,0,1,2,3,4,5,6,7,8,9,10,11,12,13,14,15,16,17,18,19,20,21,0,1,2,3,4,5,6,7,8,9,10,11,12,13,14,15,16,17,18,19,20,21,0,1,2,3,4,5,6,7,8,9,10,11,12,13,14,15,16,17,18,19,20,21,0,1,2,3,4,5,6,7,8,9,10,11,12,13,14,15,16,17,18,19,20,21,0,1,2,3,4,5,6,7,8,9,10,11,12,13,14,15,16,17,18,19,20,21,0,1,2,3,4,5,6,7,8,9,10,11,12,13,14,15,16,17,18,19,20,21,0,1,2,3,4,5,6,7,8,9,10,11,12,13,14,15,16,17,18,19,20,21,0,1,2,3,4,5,6,7,8,9,10,11,12,13,14,15,16,17,18,19,20,21,0,1,2,3,4,5,6,7,8,9,10,11,12,13,14,15,16,17,18,19,20,21,0,1,2,3,4,5,6,7,8,9,10,11,12,13,14,15,16,17,18,19,20,21,0,1,2,3,4,5,6,7,8,9,10,11,12,13,14,15,16,17,18,19,20,21,0,1,2,3,4,5,6,7,8,9,10,11,12,13,14,15,16,17,18,19,20,21,0,1,2,3,4,5,6,7,8,9,10,11,12,13,14,15,16,17,18,19,20,21,0,1,2,3,4,5,6,7,8,9,10,11,12,13,14,15,16,17,18,19,20,21,0,1,2,3,4,5,6,7,8,9,10,11,12,13,14,15,16,17,18,19,20,21,0,1,2,3,4,5,6,7,8,9,10,11,12,13,14,15,16,17,18,19,20,21,0,1,2,3,4,5,6,7,8,9,10,11,12,13,14,15,16,17,18,19,20,21,0,1,2,3,4,5,6,7,8,9,10,11,12,13,14,15,16,17,18,19,20,21,0,1,2,3,4,5,6,7,8,9,10,11,12,13,14,15,16,17,18,19,20,21,0,1,2,3,4,5,6,7,8,9,10,11,12,13,14,15,16,17,18,19,20,21,0,1,2,3,4,5,6,7,8,9,10,11,12,13,14,15,16,17,18,19,20,21,0,1,2,3,4,5,6,7,8,9,10,11,12,13,14,15,16,17,18,19,20,21,0,1,2,3,4,5,6,7,8,9,10,11,12,13,14,15,16,17,18,19,20,21,0,1,2,3,4,5,6,7,8,9,10,11,12,13,14,15,16,17,18,19,20,21,0,1,2,3,4,5,6,7,8,9,10,11,12,13,14,15,16,17,18,19,20,21,0,1,2,3,4,5,6,7,8,9,10,11,12,13,14,15,16,17,18,19,20,21,0,1,2,3,4,5,6,7,8,9,10,11,12,13,14,15,16,17,18,19,20,21,0,1,2,3,4,5,6,7,8,9,10,11,12,13,14,15,16,17,18,19,20,21,0,1,2,3,4,5,6,7,8,9,10,11,12,13,14,15,16,17,18,19,20,21,0,1,2,3,4,5,6,7,8,9,10,11,12,13,14,15,16,17,18,19,20,21,0,1,2,3,4,5,6,7,8,9,10,11,12,13,14,15,16,17,18,19,20,21,0,1,2,3,4,5,6,7,8,9,10,11,12,13,14,15,16,17,18,19,20,21,0,1,2,3,4,5,6,7,8,9,10,11,12,13,14,15,16,17,18,19,20,21,0,1,2,3,4,5,6,7,8,9,10,11,12,13,14,15,16,17,18,19,20,21,0,1,2,3,4,5,6,7,8,9,10,11,12,13,14,15,16,17,18,19,20,21,0,1,2,3,4,5,6,7,8,9,10,11,12,13,14,15,16,17,18,19,20,21,0,1,2,3,4,5,6,7,8,9,10,11,12,13,14,15,16,17,18,19,20,21,0,1,2,3,4,5,6,7,8,9,10,11,12,13,14,15,16,17,18,19,20,21,0,1,2,3,4,5,6,7,8,9,10,11,12,13,14,15,16,17,18,19,20,21,0,1,2,3,4,5,6,7,8,9,10,11,12,13,14,15,16,17,18,19,20,21,0,1,2,3,4,5,6,7,8,9,10,11,12,13,14,15,16,17,18,19,20,21,0,1,2,3,4,5,6,7,8,9,10,11,12,13,14,15,16,17,18,19,20,21,0,1,2,3,4,5,6,7,8,9,10,11,12,13,14,15,16,17,18,19,20,21,0,1,2,3,4,5,6,7,8,9,10,11,12,13,14,15,16,17,18,19,20,21,0,1,2,3,4,5,6,7,8,9,10,11,12,13,14,15,16,17,18,19,20,21,0,1,2,3,4,5,6,7,8,9,10,11,12,13,14,15,16,17,18,19,20,21,0,1,2,3,4,5,6,7,8,9,10,11,12,13,14,15,16,17,18,19,20,21,0,1,2,3,4,5,6,7,8,9,10,11,12,13,14,15,16,17,18,19,20,21,0,1,2,3,4,5,6,7,8,9,10,11,12,13,14,15,16,17,18,19,20,21,0,1,2,3,4,5,6,7,8,9,10,11,12,13,14,15,16,17,18,19,20,21,0,1,2,3,4,5,6,7,8,9,10,11,12,13,14,15,16,17,18,19,20,21,0,1,2,3,4,5,6,7,8,9,10,11,12,13,14,15,16,17,18,19,20,21,0,1,2,3,4,5,6,7,8,9,10,11,12,13,14,15,16,17,18,19,20,21,0,1,2,3,4,5,6,7,8,9,10,11,12,13,14,15,16,17,18,19,20,21,0,1,2,3,4,5,6,7,8,9,10,11,12,13,14,15,16,17,18,19,20,21,0,1,2,3,4,5,6,7,8,9,10,11,12,13,14,15,16,17,18,19,20,21,0,1,2,3,4,5,6,7,8,9,10,11,12,13,14,15,16,17,18,19,20,21,0,1,2,3,4,5,6,7,8,9,10,11,12,13,14,15,16,17,18,19,20,21,0,1,2,3,4,5,6,7,8,9,10,11,12,13,14,15,16,17,18,19,20,21,0,1,2,3,4,5,6,7,8,9,10,11,12,13,14,15,16,17,18,19,20,21,0,1,2,3,4,5,6,7,8,9,10,11,12,13,14,15,16,17,18,19,20,21,0,1,2,3,4,5,6,7,8,9,10,11,12,13,14,15,16,17,18,19,20,21,0,1,2,3,4,5,6,7,8,9,10,11,12,13,14,15,16,17,18,19,20,21,0,1,2,3,4,5,6,7,8,9,10,11,12,13,14,15,16,17,18,19,20,21,0,1,2,3,4,5,6,7,8,9,10,11,12,13,14,15,16,17,18,19,20,21,0,1,2,3,4,5,6,7,8,9,10,11,12,13,14,15,16,17,18,19,20,21,0,1,2,3,4,5,6,7,8,9,10,11,12,13,14,15,16,17,18,19,20,21,0,1,2,3,4,5,6,7,8,9,10,11,12,13,14,15,16,17,18,19,20,21,0,1,2,3,4,5,6,7,8,9,10,11,12,13,14,15,16,17,18,19,20,21,0,1,2,3,4,5,6,7,8,9,10,11,12,13,14,15,16,17,18,19,20,21,0,1,2,3,4,5,6,7,8,9,10,11,12,13,14,15,16,17,18,19,20,21,0,1,2,3,4,5,6,7,8,9,10,11,12,13,14,15,16,17,18,19,20,21,0,1,2,3,4,5,6,7,8,9,10,11,12,13,14,15,16,17,18,19,20,21,0,1,2,3,4,5,6,7,8,9,10,11,12,13,14,15,16,17,18,19,20,21,0,1,2,3,4,5,6,7,8,9,10,11,12,13,14,15,16,17,18,19,20,21,0,1,2,3,4,5,6,7,8,9,10,11,12,13,14,15,16,17,18,19,20,21,0,1,2,3,4,5,6,7,8,9,10,11,12,13,14,15,16,17,18,19,20,21,0,1,2,3,4,5,6,7,8,9,10,11,12,13,14,15,16,17,18,19,20,21,0,1,2,3,4,5,6,7,8,9,10,11,12,13,14,15,16,17,18,19,20,21,0,1,2,3,4,5,6,7,8,9,10,11,12,13,14,15,16,17,18,19,20,21,0,1,2,3,4,5,6,7,8,9,10,11,12,13,14,15,16,17,18,19,20,21,0,1,2,3,4,5,6,7,8,9,10,11,12,13,14,15,16,17,18,19,20,21,0,1,2,3,4,5,6,7,8,9,10,11,12,13,14,15,16,17,18,19,20,21,0,1,2,3,4,5,6,7,8,9,10,11,12,13,14,15,16,17,18,19,20,21,0,1,2,3,4,5,6,7,8,9,10,11,12,13,14,15,16,17,18,19,20,21,0,1,2,3,4,5,6,7,8,9,10,11,12,13,14,15,16,17,18,19,20,21,0,1,2,3,4,5,6,7,8,9,10,11,12,13,14,15,16,17,18,19,20,21,0,1,2,3,4,5,6,7,8,9,10,11,12,13,14,15,16,17,18,19,20,21,0,1,2,3,4,5,6,7,8,9,10,11,12,13,14,15,16,17,18,19,20,21,0,1,2,3,4,5,6,7,8,9,10,11,12,13,14,15,16,17,18,19,20,21,0,1,2,3,4,5,6,7,8,9,10,11,12,13,14,15,16,17,18,19,20,21,0,1,2,3,4,5,6,7,8,9,10,11,12,13,14,15,16,17,18,19,20,21,0,1,2,3,4,5,6,7,8,9,10,11,12,13,14,15,16,17,18,19,20,21,0,1,2,3,4,5,6,7,8,9,10,11,12,13,14,15,16,17,18,19,20,21,0,1,2,3,4,5,6,7,8,9,10,11,12,13,14,15,16,17,18,19,20,21,0,1,2,3,4,5,6,7,8,9,10,11,12,13,14,15,16,17,18,19,20,21,0,1,2,3,4,5,6,7,8,9,10,11,12,13,14,15,16,17,18,19,20,21,0,1,2,3,4,5,6,7,8,9,10,11,12,13,14,15,16,17,18,19,20,21,0,1,2,3,4,5,6,7,8,9,10,11,12,13,14,15,16,17,18,19,20,21,0,1,2,3,4,5,6,7,8,9,10,11,12,13,14,15,16,17,18,19,20,21,0,1,2,3,4,5,6,7,8,9,10,11,12,13,14,15,16,17,18,19,20,21,0,1,2,3,4,5,6,7,8,9,10,11,12,13,14,15,16,17,18,19,20,21,0,1,2,3,4,5,6,7,8,9,10,11,12,13,14,15,16,17,18,19,20,21,0,1,2,3,4,5,6,7,8,9,10,11,12,13,14,15,16,17,18,19,20,21,0,1,2,3,4,5,6,7,8,9,10,11,12,13,14,15,16,17,18,19,20,21,0,1,2,3,4,5,6,7,8,9,10,11,12,13,14,15,16,17,18,19,20,21,0,1,2,3,4,5,6,7,8,9,10,11,12,13,14,15,16,17,18,19,20,21,0,1,2,3,4,5,6,7,8,9,10,11,12,13,14,15,16,17,18,19,20,21,0,1,2,3,4,5,6,7,8,9,10,11,12,13,14,15,16,17,18,19,20,21,0,1,2,3,4,5,6,7,8,9,10,11,12,13,14,15,16,17,18,19,20,21,0,1,2,3,4,5,6,7,8,9,10,11,12,13,14,15,16,17,18,19,20,21,0,1,2,3,4,5,6,7,8,9,10,11,12,13,14,15,16,17,18,19,20,21,0,1,2,3,4,5,6,7,8,9,10,11,12,13,14,15,16,17,18,19,20,21,0,1,2,3,4,5,6,7,8,9,10,11,12,13,14,15,16,17,18,19,20,21,0,1,2,3,4,5,6,7,8,9,10,11,12,13,14,15,16,17,18,19,20,21,0,1,2,3,4,5,6,7,8,9,10,11,12,13,14,15,16,17,18,19,20,21,0,1,2,3,4,5,6,7,8,9,10,11,12,13,14,15,16,17,18,19,20,21,0,1,2,3,4,5,6,7,8,9,10,11,12,13,14,15,16,17,18,19,20,21,0,1,2,3,4,5,6,7,8,9,10,11,12,13,14,15,16,17,18,19,20,21,0,1,2,3,4,5,6,7,8,9,10,11,12,13,14,15,16,17,18,19,20,21,0,1,2,3,4,5,6,7,8,9,10,11,12,13,14,15,16,17,18,19,20,21,0,1,2,3,4,5,6,7,8,9,10,11,12,13,14,15,16,17,18,19,20,21,0,1,2,3,4,5,6,7,8,9,10,11,12,13,14,15,16,17,18,19,20,21,0,1,2,3,4,5,6,7,8,9,10,11,12,13,14,15,16,17,18,19,20,21,0,1,2,3,4,5,6,7,8,9,10,11,12,13,14,15,16,17,18,19,20,21,0,1,2,3,4,5,6,7,8,9,10,11,12,13,14,15,16,17,18,19,20,21,0,1,2,3,4,5,6,7,8,9,10,11,12,13,14,15,16,17,18,19,20,21,0,1,2,3,4,5,6,7,8,9,10,11,12,13,14,15,16,17,18,19,20,21,0,1,2,3,4,5,6,7,8,9,10,11,12,13,14,15,16,17,18,19,20,21,0,1,2,3,4,5,6,7,8,9,10,11,12,13,14,15,16,17,18,19,20,21,0,1,2,3,4,5,6,7,8,9,10,11,12,13,14,15,16,17,18,19,20,21,0,1,2,3,4,5,6,7,8,9,10,11,12,13,14,15,16,17,18,19,20,21,0,1,2,3,4,5,6,7,8,9,10,11,12,13,14,15,16,17,18,19,20,21,0,1,2,3,4,5,6,7,8,9,10,11,12,13,14,15,16,17,18,19,20,21,0,1,2,3,4,5,6,7,8,9,10,11,12,13,14,15,16,17,18,19,20,21,0,1,2,3,4,5,6,7,8,9,10,11,12,13,14,15,16,17,18,19,20,21,0,1,2,3,4,5,6,7,8,9,10,11,12,13,14,15,16,17,18,19,20,21,0,1,2,3,4,5,6,7,8,9,10,11,12,13,14,15,16,17,18,19,20,21,0,1,2,3,4,5,6,7,8,9,10,11,12,13,14,15,16,17,18,19,20,21,0,1,2,3,4,5,6,7,8,9,10,11,12,13,14,15,16,17,18,19,20,21,0,1,2,3,4,5,6,7,8,9,10,11,12,13,14,15,16,17,18,19,20,21,0,1,2,3,4,5,6,7,8,9,10,11,12,13,14,15,16,17,18,19,20,21,0,1,2,3,4,5,6,7,8,9,10,11,12,13,14,15,16,17,18,19,20,21,0,1,2,3,4,5,6,7,8,9,10,11,12,13,14,15,16,17,18,19,20,21,0,1,2,3,4,5,6,7,8,9,10,11,12,13,14,15,16,17,18,19,20,21,0,1,2,3,4,5,6,7,8,9,10,11,12,13,14,15,16,17,18,19,20,21,0,1,2,3,4,5,6,7,8,9,10,11,12,13,14,15,16,17,18,19,20,21,0,1,2,3,4,5,6,7,8,9,10,11,12,13,14,15,16,17,18,19,20,21,0,1,2,3,4,5,6,7,8,9,10,11,12,13,14,15,16,17,18,19,20,21,0,1,2,3,4,5,6,7,8,9,10,11,12,13,14,15,16,17,18,19,20,21,0,1,2,3,4,5,6,7,8,9,10,11,12,13,14,15,16,17,18,19,20,21,0,1,2,3,4,5,6,7,8,9,10,11,12,13,14,15,16,17,18,19,20,21,0,1,2,3,4,5,6,7,8,9,10,11,12,13,14,15,16,17,18,19,20,21,0,1,2,3,4,5,6,7,8,9,10,11,12,13,14,15,16,17,18,19,20,21,0,1,2,3,4,5,6,7,8,9,10,11,12,13,14,15,16,17,18,19,20,21,0,1,2,3,4,5,6,7,8,9,10,11,12,13,14,15,16,17,18,19,20,21,0,1,2,3,4,5,6,7,8,9,10,11,12,13,14,15,16,17,18,19,20,21,0,1,2,3,4,5,6,7,8,9,10,11,12,13,14,15,16,17,18,19,20,21,0,1,2,3,4,5,6,7,8,9,10,11,12,13,14,15,16,17,18,19,20,21,0,1,2,3,4,5,6,7,8,9,10,11,12,13,14,15,16,17,18,19,20,21,0,1,2,3,4,5,6,7,8,9,10,11,12,13,14,15,16,17,18,19,20,21,0,1,2,3,4,5,6,7,8,9,10,11,12,13,14,15,16,17,18,19,20,21,0,1,2,3,4,5,6,7,8,9,10,11,12,13,14,15,16,17,18,19,20,21,0,1,2,3,4,5,6,7,8,9,10,11,12,13,14,15,16,17,18,19,20,21,0,1,2,3,4,5,6,7,8,9,10,11,12,13,14,15,16,17,18,19,20,21,0,1,2,3,4,5,6,7,8,9,10,11,12,13,14,15,16,17,18,19,20,21,0,1,2,3,4,5,6,7,8,9,10,11,12,13,14,15,16,17,18,19,20,21,0,1,2,3,4,5,6,7,8,9,10,11,12,13,14,15,16,17,18,19,20,21,0,1,2,3,4,5,6,7,8,9,10,11,12,13,14,15,16,17,18,19,20,21,0,1,2,3,4,5,6,7,8,9,10,11,12,13,14,15,16,17,18,19,20,21,0,1,2,3,4,5,6,7,8,9,10,11,12,13,14,15,16,17,18,19,20,21,0,1,2,3,4,5,6,7,8,9,10,11,12,13,14,15,16,17,18,19,20,21,0,1,2,3,4,5,6,7,8,9,10,11,12,13,14,15,16,17,18,19,20,21,0,1,2,3,4,5,6,7,8,9,10,11,12,13,14,15,16,17,18,19,20,21,0,1,2,3,4,5,6,7,8,9,10,11,12,13,14,15,16,17,18,19,20,21,0,1,2,3,4,5,6,7,8,9,10,11,12,13,14,15,16,17,18,19,20,21,0,1,2,3,4,5,6,7,8,9,10,11,12,13,14,15,16,17,18,19,20,21,0,1,2,3,4,5,6,7,8,9,10,11,12,13,14,15,16,17,18,19,20,21,0,1,2,3,4,5,6,7,8,9,10,11,12,13,14,15,16,17,18,19,20,21,0,1,2,3,4,5,6,7,8,9,10,11,12,13,14,15,16,17,18,19,20,21,0,1,2,3,4,5,6,7,8,9,10,11,12,13,14,15,16,17,18,19,20,21,0,1,2,3,4,5,6,7,8,9,10,11,12,13,14,15,16,17,18,19,20,21,0,1,2,3,4,5,6,7,8,9,10,11,12,13,14,15,16,17,18,19,20,21,0,1,2,3,4,5,6,7,8,9,10,11,12,13,14,15,16,17,18,19,20,21,0,1,2,3,4,5,6,7,8,9,10,11,12,13,14,15,16,17,18,19,20,21,0,1,2,3,4,5,6,7,8,9,10,11,12,13,14,15,16,17,18,19,20,21,0,1,2,3,4,5,6,7,8,9,10,11,12,13,14,15,16,17,18,19,20,21,0,1,2,3,4,5,6,7,8,9,10,11,12,13,14,15,16,17,18,19,20,21,0,1,2,3,4,5,6,7,8,9,10,11,12,13,14,15,16,17,18,19,20,21,0,1,2,3,4,5,6,7,8,9,10,11,12,13,14,15,16,17,18,19,20,21,0,1,2,3,4,5,6,7,8,9,10,11,12,13,14,15,16,17,18,19,20,21,0,1,2,3,4,5,6,7,8,9,10,11,12,13,14,15,16,17,18,19,20,21,0,1,2,3,4,5,6,7,8,9,10,11,12,13,14,15,16,17,18,19,20,21,0,1,2,3,4,5,6,7,8,9,10,11,12,13,14,15,16,17,18,19,20,21,0,1,2,3,4,5,6,7,8,9,10,11,12,13,14,15,16,17,18,19,20,21,0,1,2,3,4,5,6,7,8,9,10,11,12,13,14,15,16,17,18,19,20,21,0,1,2,3,4,5,6,7,8,9,10,11,12,13,14,15,16,17,18,19,20,21,0,1,2,3,4,5,6,7,8,9,10,11,12,13,14,15,16,17,18,19,20,21,0,1,2,3,4,5,6,7,8,9,10,11,12,13,14,15,16,17,18,19,20,21,0,1,2,3,4,5,6,7,8,9,10,11,12,13,14,15,16,17,18,19,20,21,0,1,2,3,4,5,6,7,8,9,10,11,12,13,14,15,16,17,18,19,20,21,0,1,2,3,4,5,6,7,8,9,10,11,12,13,14,15,16,17,18,19,20,21,0,1,2,3,4,5,6,7,8,9,10,11,12,13,14,15,16,17,18,19,20,21,0,1,2,3,4,5,6,7,8,9,10,11,12,13,14,15,16,17,18,19,20,21,0,1,2,3,4,5,6,7,8,9,10,11,12,13,14,15,16,17,18,19,20,21,0,1,2,3,4,5,6,7,8,9,10,11,12,13,14,15,16,17,18,19,20,21,0,1,2,3,4,5,6,7,8,9,10,11,12,13,14,15,16,17,18,19,20,21,0,1,2,3,4,5,6,7,8,9,10,11,12,13,14,15,16,17,18,19,20,21,0,1,2,3,4,5,6,7,8,9,10,11,12,13,14,15,16,17,18,19,20,21,0,1,2,3,4,5,6,7,8,9,10,11,12,13,14,15,16,17,18,19,20,21,0,1,2,3,4,5,6,7,8,9,10,11,12,13,14,15,16,17,18,19,20,21,0,1,2,3,4,5,6,7,8,9,10,11,12,13,14,15,16,17,18,19,20,21,0,1,2,3,4,5,6,7,8,9,10,11,12,13,14,15,16,17,18,19,20,21,0,1,2,3,4,5,6,7,8,9,10,11,12,13,14,15,16,17,18,19,20,21,0,1,2,3,4,5,6,7,8,9,10,11,12,13,14,15,16,17,18,19,20,21,0,1,2,3,4,5,6,7,8,9,10,11,12,13,14,15,16,17,18,19,20,21,0,1,2,3,4,5,6,7,8,9,10,11,12,13,14,15,16,17,18,19,20,21,0,1,2,3,4,5,6,7,8,9,10,11,12,13,14,15,16,17,18,19,20,21,0,1,2,3,4,5,6,7,8,9,10,11,12,13,14,15,16,17,18,19,20,21,0,1,2,3,4,5,6,7,8,9,10,11,12,13,14,15,16,17,18,19,20,21,0,1,2,3,4,5,6,7,8,9,10,11,12,13,14,15,16,17,18,19,20,21,0,1,2,3,4,5,6,7,8,9,10,11,12,13,14,15,16,17,18,19,20,21,0,1,2,3,4,5,6,7,8,9,10,11,12,13,14,15,16,17,18,19,20,21],"trees":[{"base_weights":[-3.7491962E-1,3.3961165E-1,-4.156369E-1,-4.7090212E-1,6.213389E-1,-1.4998059E-1,4.3326035E-2,5.076923E-1,-1.03125006E-1],"categories":[],"categories_nodes":[],"categories_segments":[],"categories_sizes":[],"default_left":[0,0,0,0,0,0,0,0,0],"id":0,"left_children":[1,-1,3,5,7,-1,-1,-1,-1],"loss_changes":[4.807498E0,0E0,4.2786207E0,1.2620535E0,4.664799E0,0E0,0E0,0E0,0E0],"parents":[2147483647,0,0,2,2,3,3,4,4],"right_children":[2,-1,4,6,8,-1,-1,-1,-1],"split_conditions":[0E0,3.3961165E-1,1E0,1E0,9.967471E-3,-1.4998059E-1,4.3326035E-2,5.076923E-1,-1.03125006E-1],"split_indices":[0,0,754,156,121,0,0,0,0],"split_type":[0,0,0,0,0,0,0,0,0],"sum_hessian":[6.9681816E1,1.1280992E0,6.855372E1,6.560331E1,2.9504132E0,6.2826447E1,2.7768595E0,1.0413224E0,1.9090909E0],"tree_param":{"num_deleted":"0","num_feature":"903","num_nodes":"9","size_leaf_vector":"0"}},{"base_weights":[-3.53698E-2,-1.9463737E-1,3.322335E0,-3.005083E-1,1.4203581E0,6.6801615E-2,1.4037313E0,-1.15315996E-1,2.4187027E-1,6.7238605E-1,-8.8868946E-2],"categories":[],"categories_nodes":[],"categories_segments":[],"categories_sizes":[],"default_left":[0,0,0,0,0,0,0,0,0,0,0],"id":1,"left_children":[1,3,5,7,9,-1,-1,-1,-1,-1,-1],"loss_changes":[3.844541E1,1.2126312E1,1.2652134E1,6.347805E0,6.842271E0,0E0,0E0,0E0,0E0,0E0,0E0],"parents":[2147483647,0,0,1,1,2,2,3,3,4,4],"right_children":[2,4,6,8,10,-1,-1,-1,-1,-1,-1],"split_conditions":[1E0,4.355739E-1,3.382525E-1,1.463115E0,6.1713453E-2,6.6801615E-2,1.4037313E0,-1.15315996E-1,2.4187027E-1,6.7238605E-1,-8.8868946E-2],"split_indices":[151,121,671,671,902,0,0,0,0,0,0],"split_type":[0,0,0,0,0,0,0,0,0,0,0],"sum_hessian":[6.9681816E1,6.742562E1,2.2561984E0,6.404132E1,3.3842976E0,1.0413224E0,1.214876E0,6.0136364E1,3.9049587E0,2.0826447E0,1.3016529E0],"tree_param":{"num_deleted":"0","num_feature":"903","num_nodes":"11","size_leaf_vector":"0"}},{"base_weights":[-4.881029E-1,7.556426E-2,-1.5481383E-1,2.1376519E-1,-1.0756193E-1],"categories":[],"categories_nodes":[],"categories_segments":[],"categories_sizes":[],"default_left":[0,0,0,0,0],"id":2,"left_children":[1,3,-1,-1,-1],"loss_changes":[1.1522789E0,1.4198257E0,0E0,0E0,0E0],"parents":[2147483647,0,0,1,1],"right_children":[2,4,-1,-1,-1],"split_conditions":[0E0,5.200833E-3,-1.5481383E-1,2.1376519E-1,-1.0756193E-1],"split_indices":[436,121,0,0,0],"split_type":[0,0,0,0,0],"sum_hessian":[6.9681816E1,3.210744E0,6.647108E1,1.0413224E0,2.1694214E0],"tree_param":{"num_deleted":"0","num_feature":"903","num_nodes":"5","size_leaf_vector":"0"}},{"base_weights":[3.1832793E-1,-2.7096516E-1,3.8051426E0,-3.768787E-1,1.1922714E0,1.7069963E0,2.2503614E0,-1.366864E-1,6.878873E-2,-1.0888326E-1,9.0349513E-1,1.5384111E-1,1.1922581E0],"categories":[],"categories_nodes":[],"categories_segments":[],"categories_sizes":[],"default_left":[0,0,0,0,0,0,0,0,0,0,0,0,0],"id":3,"left_children":[1,3,5,7,9,11,-1,-1,-1,-1,-1,-1,-1],"loss_changes":[1.4626494E2,9.964392E0,6.695534E1,2.8735056E0,1.3498547E1,1.9230202E1,0E0,0E0,0E0,0E0,0E0,0E0,0E0],"parents":[2147483647,0,0,1,1,2,2,3,3,4,4,5,5],"right_children":[2,4,6,8,10,12,-1,-1,-1,-1,-1,-1,-1],"split_conditions":[1E0,1E0,1E0,1E0,1E0,1E0,2.2503614E0,-1.366864E-1,6.878873E-2,-1.0888326E-1,9.0349513E-1,1.5384111E-1,1.1922581E0],"split_indices":[322,745,10,845,283,294,0,0,0,0,0,0,0],"split_type":[0,0,0,0,0,0,0,0,0,0,0,0,0],"sum_hessian":[6.9681816E1,6.0396694E1,9.285124E0,5.7012398E1,3.3842976E0,6.855372E0,2.429752E0,5.0677685E1,6.3347106E0,2.2561984E0,1.1280992E0,5.2933884E0,1.5619835E0],"tree_param":{"num_deleted":"0","num_feature":"903","num_nodes":"13","size_leaf_vector":"0"}},{"base_weights":[2.1575563E0,1.1365232E0,2.6248007E0,6.482265E0,4.905275E-1,6.281726E-1,2.478888E0,3.3155855E-2,7.037915E-1],"categories":[],"categories_nodes":[],"categories_segments":[],"categories_sizes":[],"default_left":[0,0,0,0,0,0,0,0,0],"id":4,"left_children":[1,3,-1,5,7,-1,-1,-1,-1],"loss_changes":[4.6577475E2,2.1213943E2,0E0,3.458908E1,3.9726536E1,0E0,0E0,0E0,0E0],"parents":[2147483647,0,0,1,1,3,3,4,4],"right_children":[2,4,-1,6,8,-1,-1,-1,-1],"split_conditions":[1E0,0E0,2.6248007E0,1E0,1E0,6.281726E-1,2.478888E0,3.3155855E-2,7.037915E-1],"split_indices":[497,819,0,654,68,0,0,0,0],"split_type":[0,0,0,0,0,0,0,0,0],"sum_hessian":[6.9681816E1,6.135124E1,8.330579E0,5.640496E0,5.5710743E1,2.2561984E0,3.3842976E0,4.7119835E1,8.590909E0],"tree_param":{"num_deleted":"0","num_feature":"903","num_nodes":"9","size_leaf_vector":"0"}},{"base_weights":[1.6270094E-1,-2.2795673E-1,2.8414578E0,-3.3880576E-1,7.432432E-1,4.1336694E0,-1.1245594E-1,2.1949542E-1,-1.210871E-1,6.9317776E-1,-1.7593304E-2,-8.330098E-2,1.5306169E0],"categories":[],"categories_nodes":[],"categories_segments":[],"categories_sizes":[],"default_left":[0,0,0,0,0,0,0,0,0,0,0,0,0],"id":5,"left_children":[1,3,5,7,9,11,-1,-1,-1,-1,-1,-1,-1],"loss_changes":[7.461462E1,6.9923635E0,3.9246864E1,4.242215E0,8.590593E0,2.9413399E1,0E0,0E0,0E0,0E0,0E0,0E0,0E0],"parents":[2147483647,0,0,1,1,2,2,3,3,4,4,5,5],"right_children":[2,4,6,8,10,12,-1,-1,-1,-1,-1,-1,-1],"split_conditions":[1E0,1E0,1E0,0E0,1E0,0E0,-1.1245594E-1,2.1949542E-1,-1.210871E-1,6.9317776E-1,-1.7593304E-2,-8.330098E-2,1.5306169E0],"split_indices":[673,240,109,458,287,247,0,0,0,0,0,0,0],"split_type":[0,0,0,0,0,0,0,0,0,0,0,0,0],"sum_hessian":[6.9681816E1,6.1611572E1,8.070248E0,5.5884296E1,5.727273E0,5.553719E0,2.5165288E0,2.6033058E0,5.328099E1,1.3016529E0,4.42562E0,1.1280992E0,4.42562E0],"tree_param":{"num_deleted":"0","num_feature":"903","num_nodes":"13","size_leaf_vector":"0"}},{"base_weights":[-3.6077172E-1,-3.9908093E-1,5.302843E-1,-4.2508757E-1,2.51269E-1,3.6072877E-1,-8.8868946E-2,6.934486E-2,-1.3585089E-1,2.1376519E-1,-8.619403E-2],"categories":[],"categories_nodes":[],"categories_segments":[],"categories_sizes":[],"default_left":[0,0,0,0,0,0,0,0,0,0,0],"id":6,"left_children":[1,3,5,7,9,-1,-1,-1,-1,-1,-1],"loss_changes":[2.6243954E0,1.2626553E0,2.2133424E0,1.3080215E0,1.0136894E0,0E0,0E0,0E0,0E0,0E0,0E0],"parents":[2147483647,0,0,1,1,2,2,3,3,4,4],"right_children":[2,4,6,8,10,-1,-1,-1,-1,-1,-1],"split_conditions":[1E0,1E0,8.771047E-2,0E0,3.8000897E-2,3.6072877E-1,-8.8868946E-2,6.934486E-2,-1.3585089E-1,2.1376519E-1,-8.619403E-2],"split_indices":[309,94,42,734,36,0,0,0,0,0,0],"split_type":[0,0,0,0,0,0,0,0,0,0,0],"sum_hessian":[6.9681816E1,6.7338844E1,2.3429751E0,6.508264E1,2.2561984E0,1.0413224E0,1.3016529E0,2.3429751E0,6.273967E1,1.0413224E0,1.214876E0],"tree_param":{"num_deleted":"0","num_feature":"903","num_nodes":"11","size_leaf_vector":"0"}},{"base_weights":[-4.73955E-1,6.6801615E-2,-4.87569E-1,-5.0153995E-1,4.925373E-2,-1.5479267E-1,2.1290319E-2],"categories":[],"categories_nodes":[],"categories_segments":[],"categories_sizes":[],"default_left":[0,0,0,0,0,0,0],"id":7,"left_children":[1,-1,3,5,-1,-1,-1],"loss_changes":[7.789068E-1,0E0,7.1645737E-1,6.0211945E-1,0E0,0E0,0E0],"parents":[2147483647,0,0,2,2,3,3],"right_children":[2,-1,4,6,-1,-1,-1],"split_conditions":[6.0211794E-5,6.6801615E-2,5.515824E-1,1E0,4.925373E-2,-1.5479267E-1,2.1290319E-2],"split_indices":[250,0,250,461,0,0,0],"split_type":[0,0,0,0,0,0,0],"sum_hessian":[6.9681816E1,1.0413224E0,6.8640495E1,6.742562E1,1.214876E0,6.586364E1,1.5619835E0],"tree_param":{"num_deleted":"0","num_feature":"903","num_nodes":"7","size_leaf_vector":"0"}},{"base_weights":[-4.3151125E-1,-1.5484923E-1,1.5345502E0,8.0161947E-1,-8.330098E-2],"categories":[],"categories_nodes":[],"categories_segments":[],"categories_sizes":[],"default_left":[0,0,0,0,0],"id":8,"left_children":[1,-1,3,-1,-1],"loss_changes":[1.2555836E1,0E0,7.2754827E0,0E0,0E0],"parents":[2147483647,0,0,2,2],"right_children":[2,-1,4,-1,-1],"split_conditions":[1E0,-1.5484923E-1,1.7078643E-1,8.0161947E-1,-8.330098E-2],"split_indices":[360,0,211,0,0],"split_type":[0,0,0,0,0],"sum_hessian":[6.9681816E1,6.75124E1,2.1694214E0,1.0413224E0,1.1280992E0],"tree_param":{"num_deleted":"0","num_feature":"903","num_nodes":"5","size_leaf_vector":"0"}},{"base_weights":[1.9099675E-1,1.7828178E-2,1.5567117E0,-9.1190964E-2,1.9614457E0,3.5216315E0,1.0553503E-1,-4.953864E-2,5.6283665E-1,8.619403E-1,4.925373E-2,1.3264078E0,3.2014927E-1,-1.2266547E-1,3.6072877E-1],"categories":[],"categories_nodes":[],"categories_segments":[],"categories_sizes":[],"default_left":[0,0,0,0,0,0,0,0,0,0,0,0,0,0,0],"id":9,"left_children":[1,3,5,7,9,11,13,-1,-1,-1,-1,-1,-1,-1,-1],"loss_changes":[1.6688423E1,1.3684762E1,2.2274954E1,9.227873E0,5.1481028E0,2.6641502E0,3.651068E0,0E0,0E0,0E0,0E0,0E0,0E0,0E0,0E0],"parents":[2147483647,0,0,1,1,2,2,3,3,4,4,5,5,6,6],"right_children":[2,4,6,8,10,12,14,-1,-1,-1,-1,-1,-1,-1,-1],"split_conditions":[1E0,1E0,1E0,2E0,1.1100241E-1,2.8670674E-2,3.281741E-1,-4.953864E-2,5.6283665E-1,8.619403E-1,4.925373E-2,1.3264078E0,3.2014927E-1,-1.2266547E-1,3.6072877E-1],"split_indices":[412,177,829,881,42,251,121,0,0,0,0,0,0,0,0],"split_type":[0,0,0,0,0,0,0,0,0,0,0,0,0,0,0],"sum_hessian":[6.9681816E1,6.273967E1,6.9421487E0,6.0309917E1,2.429752E0,2.3429751E0,4.5991735E0,5.9008266E1,1.3016529E0,1.214876E0,1.214876E0,1.1280992E0,1.214876E0,3.5578513E0,1.0413224E0],"tree_param":{"num_deleted":"0","num_feature":"903","num_nodes":"15","size_leaf_vector":"0"}},{"base_weights":[6.4372987E-1,1.7076132E-1,3.3508494E0,3.6464065E-2,1.0391003E0,5.113968E0,8.410794E-1,-1.607484E-2,6.9317776E-1,3.9115193E-1,1.8238447E0,4.8472387E-1,-1.04689665E-1],"categories":[],"categories_nodes":[],"categories_segments":[],"categories_sizes":[],"default_left":[0,0,0,0,0,0,0,0,0,0,0,0,0],"id":10,"left_children":[1,3,5,7,-1,9,11,-1,-1,-1,-1,-1,-1],"loss_changes":[8.992757E1,2.6948303E1,4.1978615E1,1.2376647E1,0E0,1.3948105E1,5.6456523E0,0E0,0E0,0E0,0E0,0E0,0E0],"parents":[2147483647,0,0,1,1,2,2,3,3,5,5,6,6],"right_children":[2,4,6,8,-1,10,12,-1,-1,-1,-1,-1,-1],"split_conditions":[1E0,2E0,1.1328004E-1,1E0,1.0391003E0,2.6450729E-2,4.198509E-3,-1.607484E-2,6.9317776E-1,3.9115193E-1,1.8238447E0,4.8472387E-1,-1.04689665E-1],"split_indices":[712,287,671,415,0,603,250,0,0,0,0,0,0],"split_type":[0,0,0,0,0,0,0,0,0,0,0,0,0],"sum_hessian":[6.9681816E1,6.022314E1,9.458677E0,5.8834713E1,1.3884298E0,4.946281E0,4.512397E0,5.753306E1,1.3016529E0,1.4752066E0,3.4710743E0,2.5165288E0,1.9958677E0],"tree_param":{"num_deleted":"0","num_feature":"903","num_nodes":"13","size_leaf_vector":"0"}},{"base_weights":[-3.6077172E-1,-4.4399333E-1,6.3355595E-1,-4.718499E-1,1.598616E-1,-1.5020691E-1,1.03125E-1],"categories":[],"categories_nodes":[],"categories_segments":[],"categories_sizes":[],"default_left":[0,0,0,0,0,0,0],"id":11,"left_children":[1,3,-1,5,-1,-1,-1],"loss_changes":[1.5482255E1,2.134694E0,0E0,1.767313E0,0E0,0E0,0E0],"parents":[2147483647,0,0,1,1,3,3],"right_children":[2,4,-1,6,-1,-1,-1],"split_conditions":[1E0,1E0,6.3355595E-1,1E0,1.598616E-1,-1.5020691E-1,1.03125E-1],"split_indices":[747,794,0,505,0,0,0],"split_type":[0,0,0,0,0,0,0],"sum_hessian":[6.9681816E1,6.820661E1,1.4752066E0,6.6818184E1,1.3884298E0,6.490909E1,1.9090909E0],"tree_param":{"num_deleted":"0","num_feature":"903","num_nodes":"7","size_leaf_vector":"0"}},{"base_weights":[-3.466238E-1,-4.152305E-1,5.366782E-1,5.302843E-1,-4.5624E-1,-8.8868946E-2,3.6072877E-1,1.9864078E-1,-1.4564005E-1],"categories":[],"categories_nodes":[],"categories_segments":[],"categories_sizes":[],"default_left":[0,0,0,0,0,0,0,0,0],"id":12,"left_children":[1,3,-1,5,7,-1,-1,-1,-1],"loss_changes":[1.1098628E1,2.928792E0,0E0,2.2133424E0,2.5098238E0,0E0,0E0,0E0,0E0],"parents":[2147483647,0,0,1,1,3,3,4,4],"right_children":[2,4,-1,6,8,-1,-1,-1,-1],"split_conditions":[1E0,4.4752E-3,5.366782E-1,1.2511719E-2,0E0,-8.8868946E-2,3.6072877E-1,1.9864078E-1,-1.4564005E-1],"split_indices":[395,635,0,899,537,0,0,0,0],"split_type":[0,0,0,0,0,0,0,0,0],"sum_hessian":[6.9681816E1,6.829339E1,1.3884298E0,2.3429751E0,6.595042E1,1.3016529E0,1.0413224E0,1.1280992E0,6.482231E1],"tree_param":{"num_deleted":"0","num_feature":"903","num_nodes":"9","size_leaf_vector":"0"}},{"base_weights":[-4.598071E-1,-5.0162435E-1,1.9572414E-1,5.76699E-2,-1.5481682E-1],"categories":[],"categories_nodes":[],"categories_segments":[],"categories_sizes":[],"default_left":[0,0,0,0,0],"id":13,"left_children":[1,3,-1,-1,-1],"loss_changes":[3.6146803E0,7.869911E-1,0E0,0E0,0E0],"parents":[2147483647,0,0,1,1],"right_children":[2,4,-1,-1,-1],"split_conditions":[2E0,2.869742E-3,1.9572414E-1,5.76699E-2,-1.5481682E-1],"split_indices":[366,641,0,0,0],"split_type":[0,0,0,0,0],"sum_hessian":[6.9681816E1,6.768595E1,1.9958677E0,1.1280992E0,6.655785E1],"tree_param":{"num_deleted":"0","num_feature":"903","num_nodes":"5","size_leaf_vector":"0"}},{"base_weights":[1.2945337E0,7.5147843E-1,4.206373E0,1.3936007E-1,1.7302712E0,-4.551729E-3,5.1551323E0,-6.100669E-2,2.5075343E-1,2.4818414E-1,8.637584E-1,1.9378041E0,5.661088E-1],"categories":[],"categories_nodes":[],"categories_segments":[],"categories_sizes":[],"default_left":[0,0,0,0,0,0,0,0,0,0,0,0,0],"id":14,"left_children":[1,3,5,7,9,-1,11,-1,-1,-1,-1,-1,-1],"loss_changes":[1.0860744E2,3.6179966E1,4.3705444E1,9.35682E0,2.1792793E1,0E0,2.573146E1,0E0,0E0,0E0,0E0,0E0,0E0],"parents":[2147483647,0,0,1,1,2,2,3,3,4,4,6,6],"right_children":[2,4,6,8,10,-1,12,-1,-1,-1,-1,-1,-1],"split_conditions":[1.17678136E-1,4.1324335E-1,-3.3666492E-1,5.9118614E-2,3.8936287E-2,-4.551729E-3,3.094424E-1,-6.100669E-2,2.5075343E-1,2.4818414E-1,8.637584E-1,1.9378041E0,5.661088E-1],"split_indices":[617,671,671,639,617,0,831,0,0,0,0,0,0],"split_type":[0,0,0,0,0,0,0,0,0,0,0,0,0],"sum_hessian":[6.9681816E1,5.9789257E1,9.892562E0,3.7487602E1,2.2301653E1,1.9958677E0,7.896694E0,2.5599174E1,1.188843E1,1.3450414E1,8.85124E0,4.946281E0,2.9504132E0],"tree_param":{"num_deleted":"0","num_feature":"903","num_nodes":"13","size_leaf_vector":"0"}},{"base_weights":[8.276527E-1,1.684306E0,-1.5161386E-1,8.793165E-1,4.386849E0,3.6028796E-1,-1.00205876E-1,1.5626273E0,2.1290319E-2],"categories":[],"categories_nodes":[],"categories_segments":[],"categories_sizes":[],"default_left":[0,0,0,0,0,0,0,0,0],"id":15,"left_children":[1,3,-1,5,7,-1,-1,-1,-1],"loss_changes":[8.156607E1,9.025622E1,0E0,1.3897415E1,3.3959625E1,0E0,0E0,0E0,0E0],"parents":[2147483647,0,0,1,1,3,3,4,4],"right_children":[2,4,-1,6,8,-1,-1,-1,-1],"split_conditions":[1E0,1E0,-1.5161386E-1,1E0,1.8900652E-1,3.6028796E-1,-1.00205876E-1,1.5626273E0,2.1290319E-2],"split_indices":[109,34,0,602,361,0,0,0,0],"split_type":[0,0,0,0,0,0,0,0,0],"sum_hessian":[6.9681816E1,4.226033E1,2.7421488E1,3.3582645E1,8.677686E0,2.6553719E1,7.028926E0,7.1157026E0,1.5619835E0],"tree_param":{"num_deleted":"0","num_feature":"903","num_nodes":"9","size_leaf_vector":"0"}},{"base_weights":[-4.1736335E-1,-4.9919915E-1,1.4430806E-1,-1.5456152E-1,6.6801615E-2,4.8967743E-1,-3.380353E-1,-1.3519908E-1,6.6801615E-2],"categories":[],"categories_nodes":[],"categories_segments":[],"categories_sizes":[],"default_left":[0,0,0,0,0,0,0,0,0],"id":16,"left_children":[1,3,5,-1,-1,-1,7,-1,-1],"loss_changes":[3.3209162E0,8.301258E-1,7.559742E0,0E0,0E0,0E0,6.183492E-1,0E0,0E0],"parents":[2147483647,0,0,1,1,2,2,6,6],"right_children":[2,4,6,-1,-1,-1,8,-1,-1],"split_conditions":[1E0,2E0,0E0,-1.5456152E-1,6.6801615E-2,4.8967743E-1,1.7949949E-1,-1.3519908E-1,6.6801615E-2],"split_indices":[294,537,247,0,0,0,117,0,0],"split_type":[0,0,0,0,0,0,0,0,0],"sum_hessian":[6.9681816E1,6.0917355E1,8.764462E0,5.9876034E1,1.0413224E0,1.5619835E0,7.2024794E0,6.161157E0,1.0413224E0],"tree_param":{"num_deleted":"0","num_feature":"903","num_nodes":"9","size_leaf_vector":"0"}},{"base_weights":[-4.598071E-1,2.4932002E-1,-5.011081E-1,-1.1245594E-1,3.6072877E-1,-1.5476176E-1,5.76699E-2],"categories":[],"categories_nodes":[],"categories_segments":[],"categories_sizes":[],"default_left":[0,0,0,0,0,0,0],"id":17,"left_children":[1,3,5,-1,-1,-1,-1],"loss_changes":[2.1950407E0,3.1622233E0,7.8630066E-1,0E0,0E0,0E0,0E0],"parents":[2147483647,0,0,1,1,2,2],"right_children":[2,4,6,-1,-1,-1,-1],"split_conditions":[2.8821137E-3,1.9273184E-2,1E0,-1.1245594E-1,3.6072877E-1,-1.5476176E-1,5.76699E-2],"split_indices":[251,347,417,0,0,0,0],"split_type":[0,0,0,0,0,0,0],"sum_hessian":[6.9681816E1,3.5578513E0,6.612397E1,2.5165288E0,1.0413224E0,6.4995865E1,1.1280992E0],"tree_param":{"num_deleted":"0","num_feature":"903","num_nodes":"7","size_leaf_vector":"0"}},{"base_weights":[-3.8906753E-1,-4.153663E-1,1.7181328E-1,-4.4267073E-1,1.7181328E-1,-1.4542374E-1,7.929759E-2],"categories":[],"categories_nodes":[],"categories_segments":[],"categories_sizes":[],"default_left":[0,0,0,0,0,0,0],"id":18,"left_children":[1,3,-1,5,-1,-1,-1],"loss_changes":[2.0256815E0,2.1253214E0,0E0,2.1532545E0,0E0,0E0,0E0],"parents":[2147483647,0,0,1,1,3,3],"right_children":[2,4,-1,6,-1,-1,-1],"split_conditions":[1E0,1E0,1.7181328E-1,1E0,1.7181328E-1,-1.4542374E-1,7.929759E-2],"split_indices":[311,159,0,495,0,0,0],"split_type":[0,0,0,0,0,0,0],"sum_hessian":[6.9681816E1,6.8380165E1,1.3016529E0,6.7078514E1,1.3016529E0,6.3607437E1,3.4710743E0],"tree_param":{"num_deleted":"0","num_feature":"903","num_nodes":"7","size_leaf_vector":"0"}},{"base_weights":[-3.7491962E-1,7.831125E-1,-4.5597622E-1,-1.3807532E-1,6.546559E-1,-4.8516107E-1,1.598616E-1,-1.03125006E-1,6.6801615E-2,6.6801615E-2,-1.5002894E-1],"categories":[],"categories_nodes":[],"categories_segments":[],"categories_sizes":[],"default_left":[0,0,0,0,0,0,0,0,0,0,0],"id":19,"left_children":[1,3,5,7,-1,9,-1,-1,-1,-1,-1],"loss_changes":[6.9917088E0,6.734703E0,2.1831636E0,3.6965078E-1,0E0,8.01713E-1,0E0,0E0,0E0,0E0,0E0],"parents":[2147483647,0,0,1,1,2,2,3,3,5,5],"right_children":[2,4,6,8,-1,10,-1,-1,-1,-1,-1],"split_conditions":[4.2894334E-3,1.6828087E-3,1E0,3.090416E-3,6.546559E-1,7.324187E-5,1.598616E-1,-1.03125006E-1,6.6801615E-2,6.6801615E-2,-1.5002894E-1],"split_indices":[809,684,611,36,0,575,0,0,0,0,0],"split_type":[0,0,0,0,0,0,0,0,0,0,0],"sum_hessian":[6.9681816E1,3.9917355E0,6.569009E1,2.9504132E0,1.0413224E0,6.430165E1,1.3884298E0,1.9090909E0,1.0413224E0,1.0413224E0,6.326033E1],"tree_param":{"num_deleted":"0","num_feature":"903","num_nodes":"11","size_leaf_vector":"0"}},{"base_weights":[-3.6077172E-1,-4.3013114E-1,6.546559E-1,2.2930513E-1,-4.719163E-1,-1.4580446E-1,5.76699E-2],"categories":[],"categories_nodes":[],"categories_segments":[],"categories_sizes":[],"default_left":[0,0,0,0,0,0,0],"id":20,"left_children":[1,3,-1,-1,5,-1,-1],"loss_changes":[1.3405351E1,3.8365755E0,0E0,0E0,7.2926044E-1,0E0,0E0],"parents":[2147483647,0,0,1,1,4,4],"right_children":[2,4,-1,-1,6,-1,-1],"split_conditions":[1E0,1.8403232E-4,6.546559E-1,2.2930513E-1,1E0,-1.4580446E-1,5.76699E-2],"split_indices":[73,121,0,0,622,0,0],"split_type":[0,0,0,0,0,0,0],"sum_hessian":[6.9681816E1,6.8640495E1,1.0413224E0,1.7355372E0,6.690496E1,6.577686E1,1.1280992E0],"tree_param":{"num_deleted":"0","num_feature":"903","num_nodes":"7","size_leaf_vector":"0"}},{"base_weights":[-2.6173636E-1,-3.9665908E-1,1.7419928E0,-1.880189E-1,-1.5345864E-1,1.1647059E0,-1.0888326E-1,-1.00380234E-1,3.9115193E-1],"categories":[],"categories_nodes":[],"categories_segments":[],"categories_sizes":[],"default_left":[0,0,0,0,0,0,0,0,0],"id":21,"left_children":[1,3,5,7,-1,-1,-1,-1,-1],"loss_changes":[1.9799707E1,1.5104656E0,2.2334627E1,5.987289E0,0E0,0E0,0E0,0E0,0E0],"parents":[2147483647,0,0,1,1,2,2,3,3],"right_children":[2,4,6,8,-1,-1,-1,-1,-1],"split_conditions":[1E0,1.4628145E-2,1.383881E-2,9.02976E-2,-1.5345864E-1,1.1647059E0,-1.0888326E-1,-1.00380234E-1,3.9115193E-1],"split_indices":[745,789,789,684,0,0,0,0,0],"split_type":[0,0,0,0,0,0,0,0,0],"sum_hessian":[6.9681816E1,6.603719E1,3.644628E0,2.4384298E1,4.1652893E1,1.3884298E0,2.2561984E0,2.2909092E1,1.4752066E0],"tree_param":{"num_deleted":"0","num_feature":"903","num_nodes":"9","size_leaf_vector":"0"}},{"base_weights":[-3.3998567E-1,2.8092614E-1,-3.879286E-1,-4.542363E-1,6.0270375E-1,-1.468504E-1,4.255735E-2,4.8715392E-1,-1.0290736E-1],"categories":[],"categories_nodes":[],"categories_segments":[],"categories_sizes":[],"default_left":[0,0,0,0,0,0,0,0,0],"id":22,"left_children":[1,-1,3,5,7,-1,-1,-1,-1],"loss_changes":[3.935289E0,0E0,4.0156326E0,1.2037897E0,4.4233146E0,0E0,0E0,0E0,0E0],"parents":[2147483647,0,0,2,2,3,3,4,4],"right_children":[2,-1,4,6,8,-1,-1,-1,-1],"split_conditions":[0E0,2.8092614E-1,1E0,1E0,3.1178694E-2,-1.468504E-1,4.255735E-2,4.8715392E-1,-1.0290736E-1],"split_indices":[0,0,754,156,809,0,0,0,0],"split_type":[0,0,0,0,0,0,0,0,0],"sum_hessian":[5.7371487E1,1.4060355E0,5.5965454E1,5.296193E1,3.0035222E0,5.017253E1,2.7893991E0,1.0994102E0,1.9041121E0],"tree_param":{"num_deleted":"0","num_feature":"903","num_nodes":"9","size_leaf_vector":"0"}},{"base_weights":[6.438981E-3,-1.4236704E-1,2.148212E0,-2.955983E-1,1.0347574E0,7.4108374E-1,1.97022E-1,-1.0354566E-1,2.8137356E-1,-1.1277821E-1,5.455952E-1],"categories":[],"categories_nodes":[],"categories_segments":[],"categories_sizes":[],"default_left":[0,0,0,0,0,0,0,0,0,0,0],"id":23,"left_children":[1,3,5,7,9,-1,-1,-1,-1,-1,-1],"loss_changes":[2.0945732E1,1.1397267E1,4.2844963E-1,3.69703E0,8.761574E0,0E0,0E0,0E0,0E0,0E0,0E0],"parents":[2147483647,0,0,1,1,2,2,3,3,4,4],"right_children":[2,4,6,8,10,-1,-1,-1,-1,-1,-1],"split_conditions":[1E0,1.463115E0,5.7266142E-2,1E0,2.7277784E-2,7.4108374E-1,1.97022E-1,-1.0354566E-1,2.8137356E-1,-1.1277821E-1,5.455952E-1],"split_indices":[468,671,303,729,789,0,0,0,0,0,0],"split_type":[0,0,0,0,0,0,0,0,0,0,0],"sum_hessian":[6.376101E1,6.0491695E1,3.2693114E0,5.4186848E1,6.3048496E0,2.148991E0,1.1203203E0,5.278644E1,1.4004061E0,2.4379606E0,3.866889E0],"tree_param":{"num_deleted":"0","num_feature":"903","num_nodes":"11","size_leaf_vector":"0"}},{"base_weights":[-4.7490585E-1,1.2198951E-1,-1.5283918E-1,2.1745534E-1,-1.02192506E-1],"categories":[],"categories_nodes":[],"categories_segments":[],"categories_sizes":[],"default_left":[0,0,0,0,0],"id":24,"left_children":[1,3,-1,-1,-1],"loss_changes":[1.2331572E0,1.3384445E0,0E0,0E0,0E0],"parents":[2147483647,0,0,1,1],"right_children":[2,4,-1,-1,-1],"split_conditions":[0E0,2.478715E-3,-1.5283918E-1,2.1745534E-1,-1.02192506E-1],"split_indices":[436,659,0,0,0],"split_type":[0,0,0,0,0],"sum_hessian":[5.576914E1,2.91366E0,5.2855476E1,1.0189934E0,1.8946667E0],"tree_param":{"num_deleted":"0","num_feature":"903","num_nodes":"5","size_leaf_vector":"0"}},{"base_weights":[2.3337576E-1,-2.2952074E-1,1.2986315E0,-3.4569308E-1,8.885134E-1,1.4787441E0,-1.14882864E-1,-1.3101806E-1,6.772991E-2,-1.0183268E-1,5.007593E-1,1.8295942E-1,5.5122435E-1],"categories":[],"categories_nodes":[],"categories_segments":[],"categories_sizes":[],"default_left":[0,0,0,0,0,0,0,0,0,0,0,0,0],"id":25,"left_children":[1,3,5,7,9,11,-1,-1,-1,-1,-1,-1,-1],"loss_changes":[3.723411E1,7.1995296E0,7.4838715E0,2.636776E0,5.6234374E0,5.372772E0,0E0,0E0,0E0,0E0,0E0,0E0,0E0],"parents":[2147483647,0,0,1,1,2,2,3,3,4,4,5,5],"right_children":[2,4,6,8,10,12,-1,-1,-1,-1,-1,-1,-1],"split_conditions":[1E0,1E0,1.3776127E-1,1E0,1E0,2.5994362E-2,-1.14882864E-1,-1.3101806E-1,6.772991E-2,-1.0183268E-1,5.007593E-1,1.8295942E-1,5.5122435E-1],"split_indices":[322,745,382,845,283,833,0,0,0,0,0,0,0],"split_type":[0,0,0,0,0,0,0,0,0,0,0,0,0],"sum_hessian":[7.390532E1,5.2065365E1,2.1839954E1,4.779038E1,4.274985E0,1.9835955E1,2.0039997E0,4.1426834E1,6.3635454E0,1.881201E0,2.3937838E0,6.584744E0,1.325121E1],"tree_param":{"num_deleted":"0","num_feature":"903","num_nodes":"13","size_leaf_vector":"0"}},{"base_weights":[7.456515E-1,9.1173583E-1,-1.7603555E-1,1.4823171E0,6.708357E-1,-3.8902402E-1,2.1993315E-1,5.0996625E-1,7.092746E-2,3.7944767E-1,1.1062035E-1,-1.4949647E-1,1.3403022E-1],"categories":[],"categories_nodes":[],"categories_segments":[],"categories_sizes":[],"default_left":[0,0,0,0,0,0,0,0,0,0,0,0,0],"id":26,"left_children":[1,3,5,7,9,11,-1,-1,-1,-1,-1,-1,-1],"loss_changes":[2.0481613E1,1.44888E1,4.3722873E0,8.438522E0,1.4074085E1,1.8444593E0,0E0,0E0,0E0,0E0,0E0,0E0,0E0],"parents":[2147483647,0,0,1,1,2,2,3,3,4,4,5,5],"right_children":[2,4,6,8,10,12,-1,-1,-1,-1,-1,-1,-1],"split_conditions":[1E0,0E0,1E0,1E0,0E0,1E0,2.1993315E-1,5.0996625E-1,7.092746E-2,3.7944767E-1,1.1062035E-1,-1.4949647E-1,1.3403022E-1],"split_indices":[158,329,497,277,851,190,0,0,0,0,0,0,0],"split_type":[0,0,0,0,0,0,0,0,0,0,0,0,0],"sum_hessian":[1.3175029E2,1.1164339E2,2.01069E1,3.1613155E1,8.0030235E1,1.675399E1,3.3529096E0,2.6603065E1,5.0100894E0,2.5906418E1,5.4123817E1,1.5173504E1,1.5804858E0],"tree_param":{"num_deleted":"0","num_feature":"903","num_nodes":"13","size_leaf_vector":"0"}},{"base_weights":[1.3462183E-1,-1.8097855E-1,1.0465496E0,-3.173785E-1,5.725949E-1,-1.2932087E-1,1.374123E0,-1.189855E-1,2.4664143E-1,6.562499E-1,-1.1663871E-2,4.833782E-1,-1.1272545E-1],"categories":[],"categories_nodes":[],"categories_segments":[],"categories_sizes":[],"default_left":[0,0,0,0,0,0,0,0,0,0,0,0,0],"id":27,"left_children":[1,3,5,7,9,-1,11,-1,-1,-1,-1,-1,-1],"loss_changes":[2.0918367E1,5.7691813E0,9.626776E0,4.540276E0,8.664102E0,0E0,7.0443344E0,0E0,0E0,0E0,0E0,0E0,0E0],"parents":[2147483647,0,0,1,1,2,2,3,3,4,4,6,6],"right_children":[2,4,6,8,10,-1,12,-1,-1,-1,-1,-1,-1],"split_conditions":[1E0,1E0,0E0,1E0,3.878676E-3,-1.2932087E-1,1E0,-1.189855E-1,2.4664143E-1,6.562499E-1,-1.1663871E-2,4.833782E-1,-1.1272545E-1],"split_indices":[673,321,174,50,272,0,3,0,0,0,0,0,0],"split_type":[0,0,0,0,0,0,0,0,0,0,0,0,0],"sum_hessian":[7.102441E1,5.335933E1,1.766508E1,4.5671444E1,7.687886E0,3.148204E0,1.4516875E1,4.331158E1,2.359863E0,1.4035891E0,6.284297E0,1.28541355E1,1.6627398E0],"tree_param":{"num_deleted":"0","num_feature":"903","num_nodes":"13","size_leaf_vector":"0"}},{"base_weights":[-3.2401326E-1,-3.6870277E-1,5.168582E-1,1.0368652E-1,-4.1315317E-1,3.6971685E-1,-9.1023296E-2,3.2364655E-1,-1.2070725E-1,-1.3460504E-1,7.401958E-2],"categories":[],"categories_nodes":[],"categories_segments":[],"categories_sizes":[],"default_left":[0,0,0,0,0,0,0,0,0,0,0],"id":28,"left_children":[1,3,5,7,9,-1,-1,-1,-1,-1,-1],"loss_changes":[2.3974686E0,1.2260342E0,2.3577695E0,3.2199457E0,1.3229218E0,0E0,0E0,0E0,0E0,0E0,0E0],"parents":[2147483647,0,0,1,1,2,2,3,3,4,4],"right_children":[2,4,6,8,10,-1,-1,-1,-1,-1,-1],"split_conditions":[1E0,0E0,5.7935834E-2,1.3603692E-2,1E0,3.6971685E-1,-9.1023296E-2,3.2364655E-1,-1.2070725E-1,-1.3460504E-1,7.401958E-2],"split_indices":[309,254,641,757,29,0,0,0,0,0,0],"split_type":[0,0,0,0,0,0,0,0,0,0,0],"sum_hessian":[5.7728367E1,5.5348312E1,2.3800542E0,4.6455765E0,5.0702736E1,1.0028418E0,1.3772124E0,1.2004546E0,3.445122E0,4.8415928E1,2.2868073E0],"tree_param":{"num_deleted":"0","num_feature":"903","num_nodes":"11","size_leaf_vector":"0"}},{"base_weights":[-4.5759967E-1,-2.3995712E-2,-4.9061766E-1,2.2109322E-1,-1.1754248E-1,-1.5279694E-1,7.186159E-2],"categories":[],"categories_nodes":[],"categories_segments":[],"categories_sizes":[],"default_left":[0,0,0,0,0,0,0],"id":29,"left_children":[1,3,5,-1,-1,-1,-1],"loss_changes":[8.040199E-1,1.7115839E0,8.444824E-1,0E0,0E0,0E0,0E0],"parents":[2147483647,0,0,1,1,2,2],"right_children":[2,4,6,-1,-1,-1,-1],"split_conditions":[0E0,4.0241396E-3,1E0,2.2109322E-1,-1.1754248E-1,-1.5279694E-1,7.186159E-2],"split_indices":[891,771,202,0,0,0,0],"split_type":[0,0,0,0,0,0,0],"sum_hessian":[5.5981792E1,4.0834336E0,5.1898357E1,1.0035328E0,3.079901E0,5.0896908E1,1.0014504E0],"tree_param":{"num_deleted":"0","num_feature":"903","num_nodes":"7","size_leaf_vector":"0"}},{"base_weights":[-4.0730014E-1,-1.5288222E-1,1.1142515E0,7.6152915E-1,-1.03921644E-1],"categories":[],"categories_nodes":[],"categories_segments":[],"categories_sizes":[],"default_left":[0,0,0,0,0],"id":30,"left_children":[1,-1,3,-1,-1],"loss_changes":[9.541586E0,0E0,9.087463E0,0E0,0E0],"parents":[2147483647,0,0,2,2],"right_children":[2,-1,4,-1,-1],"split_conditions":[1E0,-1.5288222E-1,0E0,7.6152915E-1,-1.03921644E-1],"split_indices":[360,0,167,0,0],"split_type":[0,0,0,0,0],"sum_hessian":[5.6647606E1,5.3701836E1,2.9457695E0,1.1179096E0,1.82786E0],"tree_param":{"num_deleted":"0","num_feature":"903","num_nodes":"5","size_leaf_vector":"0"}},{"base_weights":[2.1941945E-1,2.6007498E-2,1.0031799E0,5.175755E-1,-1.3567932E-1,1.7376156E-1,1.5469264E0,4.009219E-1,1.1127993E-2,-6.326423E-2,2.1903543E-1,-7.008513E-2,3.1972617E-1,6.8679905E-1,-2.4409933E-2],"categories":[],"categories_nodes":[],"categories_segments":[],"categories_sizes":[],"default_left":[0,0,0,0,0,0,0,0,0,0,0,0,0,0,0],"id":31,"left_children":[1,3,5,7,9,11,13,-1,-1,-1,-1,-1,-1,-1,-1],"loss_changes":[1.0233749E1,4.466457E0,5.7608576E0,5.4183846E0,2.9155314E0,2.5821192E0,9.795465E0,0E0,0E0,0E0,0E0,0E0,0E0,0E0,0E0],"parents":[2147483647,0,0,1,1,2,2,3,3,4,4,5,5,6,6],"right_children":[2,4,6,8,10,12,14,-1,-1,-1,-1,-1,-1,-1,-1],"split_conditions":[5.0311285E-1,3.0006936E-3,3.4291863E-2,-1.8668327E-1,1.1117493E-1,1E0,2.5059039E-2,4.009219E-1,1.1127993E-2,-6.326423E-2,2.1903543E-1,-7.008513E-2,3.1972617E-1,6.8679905E-1,-2.4409933E-2],"split_indices":[784,282,382,671,36,123,684,0,0,0,0,0,0,0,0],"split_type":[0,0,0,0,0,0,0,0,0,0,0,0,0,0,0],"sum_hessian":[6.6682106E1,5.431239E1,1.2369719E1,1.2898043E1,4.1414345E1,5.420688E0,6.9490304E0,4.1109076E0,8.787135E0,3.8800632E1,2.613713E0,4.227882E0,1.1928059E0,4.4940457E0,2.4549844E0],"tree_param":{"num_deleted":"0","num_feature":"903","num_nodes":"15","size_leaf_vector":"0"}},{"base_weights":[4.8114958E-1,9.8678136E-1,-4.7561514E-1,4.467555E-1,1.6935636E0,6.9631144E-2,-1.5310836E-1,5.44166E-2,5.675254E-1,-9.623293E-2,5.5650395E-1],"categories":[],"categories_nodes":[],"categories_segments":[],"categories_sizes":[],"default_left":[0,0,0,0,0,0,0,0,0,0,0],"id":32,"left_children":[1,3,5,7,9,-1,-1,-1,-1,-1,-1],"loss_changes":[3.9312267E1,1.9417454E1,8.1771564E-1,1.1666978E1,7.923729E0,0E0,0E0,0E0,0E0,0E0,0E0],"parents":[2147483647,0,0,1,1,2,2,3,3,4,4],"right_children":[2,4,6,8,10,-1,-1,-1,-1,-1,-1],"split_conditions":[1E0,1E0,1.3216664E-4,1E0,2.8456324E-3,6.9631144E-2,-1.5310836E-1,5.44166E-2,5.675254E-1,-9.623293E-2,5.5650395E-1],"split_indices":[109,843,250,881,603,0,0,0,0,0,0],"split_type":[0,0,0,0,0,0,0,0,0,0,0],"sum_hessian":[7.929206E1,5.185586E1,2.7436197E1,3.0320898E1,2.1534964E1,1.0181519E0,2.6418045E1,2.6567438E1,3.75346E0,1.5247252E0,2.0010239E1],"tree_param":{"num_deleted":"0","num_feature":"903","num_nodes":"11","size_leaf_vector":"0"}},{"base_weights":[-3.2369995E-1,-4.3970314E-1,1.7325093E0,-4.916431E-1,4.8318112E-1,8.7642235E-1,-8.370128E-2,-1.5303516E-1,7.103157E-2,3.6899123E-1,-9.3636185E-2],"categories":[],"categories_nodes":[],"categories_segments":[],"categories_sizes":[],"default_left":[0,0,0,0,0,0,0,0,0,0,0],"id":33,"left_children":[1,3,5,7,9,-1,-1,-1,-1,-1,-1],"loss_changes":[1.473154E1,2.9332361E0,8.778918E0,8.4389687E-1,2.4630513E0,0E0,0E0,0E0,0E0,0E0,0E0],"parents":[2147483647,0,0,1,1,2,2,3,3,4,4],"right_children":[2,4,6,8,10,-1,-1,-1,-1,-1,-1],"split_conditions":[7.001586E-1,1E0,7.969622E-2,8.8918227E-1,4.229009E-2,8.7642235E-1,-8.370128E-2,-1.5303516E-1,7.103157E-2,3.6899123E-1,-9.3636185E-2],"split_indices":[356,189,121,833,347,0,0,0,0,0,0],"split_type":[0,0,0,0,0,0,0,0,0,0,0],"sum_hessian":[5.7566795E1,5.5236717E1,2.3300784E0,5.2736008E1,2.5007098E0,1.1801887E0,1.1498896E0,5.1723873E1,1.012133E0,1.0078195E0,1.4928902E0],"tree_param":{"num_deleted":"0","num_feature":"903","num_nodes":"11","size_leaf_vector":"0"}},{"base_weights":[-3.0760515E-1,-3.8712415E-1,1.2296989E0,-4.5269763E-1,3.5200682E-1,6.672777E-1,-8.538704E-2,1.4959984E-1,-1.4692728E-1,-1.16386764E-1,4.4913557E-1],"categories":[],"categories_nodes":[],"categories_segments":[],"categories_sizes":[],"default_left":[0,0,0,0,0,0,0,0,0,0,0],"id":34,"left_children":[1,3,5,7,9,-1,-1,-1,-1,-1,-1],"loss_changes":[7.663492E0,2.9057264E0,5.348822E0,2.0946903E0,4.970044E0,0E0,0E0,0E0,0E0,0E0,0E0],"parents":[2147483647,0,0,1,1,2,2,3,3,4,4],"right_children":[2,4,6,8,10,-1,-1,-1,-1,-1,-1],"split_conditions":[1E0,1E0,4.5124408E-2,1.078E-4,5.7802454E-2,6.672777E-1,-8.538704E-2,1.4959984E-1,-1.4692728E-1,-1.16386764E-1,4.4913557E-1],"split_indices":[395,445,117,659,887,0,0,0,0,0,0],"split_type":[0,0,0,0,0,0,0,0,0,0,0],"sum_hessian":[5.7795486E1,5.5664356E1,2.1311295E0,5.148435E1,4.18001E0,1.0033474E0,1.1277821E0,1.4633399E0,5.0021008E1,2.940857E0,1.2391531E0],"tree_param":{"num_deleted":"0","num_feature":"903","num_nodes":"11","size_leaf_vector":"0"}},{"base_weights":[-4.4031972E-1,-1.5291291E-1,5.227558E-1,5.112697E-1,-1.0864987E-1],"categories":[],"categories_nodes":[],"categories_segments":[],"categories_sizes":[],"default_left":[0,0,0,0,0],"id":35,"left_children":[1,-1,3,-1,-1],"loss_changes":[4.0841866E0,0E0,5.1475744E0,0E0,0E0],"parents":[2147483647,0,0,2,2],"right_children":[2,-1,4,-1,-1],"split_conditions":[1E0,-1.5291291E-1,4.8679E-2,5.112697E-1,-1.0864987E-1],"split_indices":[679,0,635,0,0],"split_type":[0,0,0,0,0],"sum_hessian":[5.6127895E1,5.2794758E1,3.3331385E0,1.0309035E0,2.302235E0],"tree_param":{"num_deleted":"0","num_feature":"903","num_nodes":"5","size_leaf_vector":"0"}},{"base_weights":[7.2139174E-1,5.224307E-1,1.8073937E0,4.0565288E-1,2.4026647E0,2.0141807E0,-9.3774974E-2,7.754109E-2,5.111711E-1,1.0324857E0,3.4332934E-1,6.494442E-1,4.8675306E-2],"categories":[],"categories_nodes":[],"categories_segments":[],"categories_sizes":[],"default_left":[0,0,0,0,0,0,0,0,0,0,0,0,0],"id":36,"left_children":[1,3,5,7,9,11,-1,-1,-1,-1,-1,-1,-1],"loss_changes":[2.0663513E1,1.7891863E1,7.2393723E0,1.5247916E1,2.3641205E0,3.518509E0,0E0,0E0,0E0,0E0,0E0,0E0,0E0],"parents":[2147483647,0,0,1,1,2,2,3,3,4,4,5,5],"right_children":[2,4,6,8,10,12,-1,-1,-1,-1,-1,-1,-1],"split_conditions":[1.8913236E-1,1E0,1E0,1E0,9.406863E-2,1E0,-9.3774974E-2,7.754109E-2,5.111711E-1,1.0324857E0,3.4332934E-1,6.494442E-1,4.8675306E-2],"split_indices":[64,569,819,844,617,673,0,0,0,0,0,0,0],"split_type":[0,0,0,0,0,0,0,0,0,0,0,0,0],"sum_hessian":[9.900254E1,8.492493E1,1.4077613E1,8.1103485E1,3.8214421E0,1.2871961E1,1.2056531E0,7.392204E1,7.1814427E0,1.14265E0,2.6787922E0,1.1747486E1,1.1244743E0],"tree_param":{"num_deleted":"0","num_feature":"903","num_nodes":"13","size_leaf_vector":"0"}},{"base_weights":[5.143841E-1,8.556098E-1,-1.491631E-1,5.776967E-1,2.276952E0,1.348832E-1,5.2138484E-1,7.6884604E-1,3.5852667E-2],"categories":[],"categories_nodes":[],"categories_segments":[],"categories_sizes":[],"default_left":[0,0,0,0,0,0,0,0,0],"id":37,"left_children":[1,3,-1,5,7,-1,-1,-1,-1],"loss_changes":[3.1385931E1,2.5322964E1,0E0,7.8006344E0,6.286335E0,0E0,0E0,0E0,0E0],"parents":[2147483647,0,0,1,1,3,3,4,4],"right_children":[2,4,-1,6,8,-1,-1,-1,-1],"split_conditions":[1E0,1E0,-1.491631E-1,1E0,1E0,1.348832E-1,5.2138484E-1,7.6884604E-1,3.5852667E-2],"split_indices":[109,186,0,854,207,0,0,0,0],"split_type":[0,0,0,0,0,0,0,0,0],"sum_hessian":[8.86933E1,6.643723E1,2.2256063E1,5.674785E1,9.689385E0,5.2355568E1,4.3922796E0,8.389812E0,1.2995732E0],"tree_param":{"num_deleted":"0","num_feature":"903","num_nodes":"9","size_leaf_vector":"0"}},{"base_weights":[-3.900761E-1,-4.8861134E-1,1.8250397E-1,-1.5257496E-1,7.04858E-2,4.6615842E-1,-2.1026386E-1,-1.347796E-1,2.1804501E-1],"categories":[],"categories_nodes":[],"categories_segments":[],"categories_sizes":[],"default_left":[0,0,0,0,0,0,0,0,0],"id":38,"left_children":[1,3,5,-1,-1,-1,7,-1,-1],"loss_changes":[3.3543482E0,8.369522E-1,5.2956467E0,0E0,0E0,0E0,2.129911E0,0E0,0E0],"parents":[2147483647,0,0,1,1,2,2,6,6],"right_children":[2,4,6,-1,-1,-1,8,-1,-1],"split_conditions":[1E0,6.8229866E-1,3.8477164E-3,-1.5257496E-1,7.04858E-2,4.6615842E-1,1.0090581E-1,-1.347796E-1,2.1804501E-1],"split_indices":[294,792,828,0,0,0,382,0,0],"split_type":[0,0,0,0,0,0,0,0,0],"sum_hessian":[5.687334E1,4.8648136E1,8.225204E0,4.763055E1,1.0175858E0,1.1731037E0,7.0521E0,6.033764E0,1.0183365E0],"tree_param":{"num_deleted":"0","num_feature":"903","num_nodes":"9","size_leaf_vector":"0"}},{"base_weights":[-4.405412E-1,2.4000303E-1,-4.9075353E-1,-1.0953391E-1,3.0819276E-1,-1.5275265E-1,7.097328E-2],"categories":[],"categories_nodes":[],"categories_segments":[],"categories_sizes":[],"default_left":[0,0,0,0,0,0,0],"id":39,"left_children":[1,3,5,-1,-1,-1,-1],"loss_changes":[2.0718136E0,2.566937E0,8.383961E-1,0E0,0E0,0E0,0E0],"parents":[2147483647,0,0,1,1,2,2],"right_children":[2,4,6,-1,-1,-1,-1],"split_conditions":[2.8821137E-3,2.7287755E-2,1E0,-1.0953391E-1,3.0819276E-1,-1.5275265E-1,7.097328E-2],"split_indices":[251,347,417,0,0,0,0],"split_type":[0,0,0,0,0,0,0],"sum_hessian":[5.6182724E1,3.6007547E0,5.258197E1,2.3391538E0,1.261601E0,5.1575596E1,1.0063734E0],"tree_param":{"num_deleted":"0","num_feature":"903","num_nodes":"7","size_leaf_vector":"0"}},{"base_weights":[-3.5649365E-1,-4.3124077E-1,1.503879E-1,-4.6846983E-1,1.0398205E-1,9.195363E-1,-1.2702926E-1,6.473209E-2,-1.4644186E-1,-8.6016774E-2,4.7834566E-1],"categories":[],"categories_nodes":[],"categories_segments":[],"categories_sizes":[],"default_left":[0,0,0,0,0,0,0,0,0,0,0],"id":40,"left_children":[1,3,5,7,-1,9,-1,-1,-1,-1,-1],"loss_changes":[2.2716818E0,1.639821E0,4.020299E0,7.6635075E-1,0E0,3.5757802E0,0E0,0E0,0E0,0E0,0E0],"parents":[2147483647,0,0,1,1,2,2,3,3,5,5],"right_children":[2,4,6,8,-1,10,-1,-1,-1,-1,-1],"split_conditions":[1.1631516E0,1E0,4.4733953E-2,0E0,1.0398205E-1,2.5170448E-3,-1.2702926E-1,6.473209E-2,-1.4644186E-1,-8.6016774E-2,4.7834566E-1],"split_indices":[671,136,740,893,0,121,0,0,0,0,0],"split_type":[0,0,0,0,0,0,0,0,0,0,0],"sum_hessian":[5.724623E1,5.001937E1,7.226859E0,4.8114277E1,1.9050925E0,2.8304412E0,4.396418E0,1.0658834E0,4.7048393E1,1.2218908E0,1.6085505E0],"tree_param":{"num_deleted":"0","num_feature":"903","num_nodes":"11","size_leaf_vector":"0"}},{"base_weights":[-3.4048826E-1,5.823179E-1,-4.5280936E-1,-1.2124842E-1,5.0693285E-1,-4.8980594E-1,1.5350644E-1,6.807305E-2,-1.5263651E-1],"categories":[],"categories_nodes":[],"categories_segments":[],"categories_sizes":[],"default_left":[0,0,0,0,0,0,0,0,0],"id":41,"left_children":[1,3,5,-1,-1,7,-1,-1,-1],"loss_changes":[6.3216057E0,8.089275E0,2.1299257E0,0E0,0E0,8.1245613E-1,0E0,0E0,0E0],"parents":[2147483647,0,0,1,1,2,2,5,5],"right_children":[2,4,6,-1,-1,8,-1,-1,-1],"split_conditions":[7.972E-3,1.2357973E-3,1E0,-1.2124842E-1,5.0693285E-1,7.324187E-5,1.5350644E-1,6.807305E-2,-1.5263651E-1],"split_indices":[416,121,611,0,0,575,0,0,0],"split_type":[0,0,0,0,0,0,0,0,0],"sum_hessian":[5.7445652E1,5.779349E0,5.16663E1,3.3925006E0,2.3868482E0,5.023166E1,1.4346411E0,1.0134468E0,4.9218216E1],"tree_param":{"num_deleted":"0","num_feature":"903","num_nodes":"9","size_leaf_vector":"0"}},{"base_weights":[-3.238438E-1,-4.0486732E-1,4.3085232E-1,6.274226E-1,-4.5502347E-1,3.605423E-1,-7.98213E-2,9.958834E-4,-1.4684105E-1],"categories":[],"categories_nodes":[],"categories_segments":[],"categories_sizes":[],"default_left":[0,0,0,0,0,0,0,0,0],"id":42,"left_children":[1,3,-1,5,7,-1,-1,-1,-1],"loss_changes":[8.935501E0,3.2255468E0,0E0,1.8858386E0,8.657713E-1,0E0,0E0,0E0,0E0],"parents":[2147483647,0,0,1,1,3,3,4,4],"right_children":[2,4,-1,6,8,-1,-1,-1,-1],"split_conditions":[1E0,1.8403232E-4,4.3085232E-1,3.382525E-1,1.4104E-3,3.605423E-1,-7.98213E-2,9.958834E-4,-1.4684105E-1],"split_indices":[73,121,0,671,36,0,0,0,0],"split_type":[0,0,0,0,0,0,0,0,0],"sum_hessian":[5.7582573E1,5.5784462E1,1.7981074E0,2.0515273E0,5.3732937E1,1.0387182E0,1.0128089E0,3.8191726E0,4.9913765E1],"tree_param":{"num_deleted":"0","num_feature":"903","num_nodes":"9","size_leaf_vector":"0"}},{"base_weights":[-2.193706E-1,-3.6575168E-1,1.0356964E0,-1.3794129E-1,-1.5112776E-1,6.318462E-1,-1.6321182E-1,-8.9432575E-2,3.114166E-1,-1.10578276E-1,6.8028055E-2],"categories":[],"categories_nodes":[],"categories_segments":[],"categories_sizes":[],"default_left":[0,0,0,0,0,0,0,0,0,0,0],"id":43,"left_children":[1,3,5,7,-1,-1,9,-1,-1,-1,-1],"loss_changes":[1.1559863E1,1.6672969E0,8.836885E0,4.4942675E0,0E0,0E0,4.0793535E-1,0E0,0E0,0E0,0E0],"parents":[2147483647,0,0,1,1,2,2,3,3,6,6],"right_children":[2,4,6,8,-1,-1,10,-1,-1,-1,-1],"split_conditions":[1E0,1.4628145E-2,7.752697E-3,9.02976E-2,-1.5112776E-1,6.318462E-1,2.152728E-1,-8.9432575E-2,3.114166E-1,-1.10578276E-1,6.8028055E-2],"split_indices":[745,789,809,684,0,0,635,0,0,0,0],"split_type":[0,0,0,0,0,0,0,0,0,0,0],"sum_hessian":[5.9859863E1,5.4242077E1,5.6177864E0,2.1217556E1,3.302452E1,2.5681028E0,3.0496836E0,1.9331207E1,1.886348E0,2.0335264E0,1.0161572E0],"tree_param":{"num_deleted":"0","num_feature":"903","num_nodes":"11","size_leaf_vector":"0"}},{"base_weights":[-3.1660745E-1,-3.83729E-1,5.1377213E-1,2.1838999E-1,-4.420177E-1,3.511011E-1,-9.965943E-2,-1.4465794E-1,3.8560264E-2],"categories":[],"categories_nodes":[],"categories_segments":[],"categories_sizes":[],"default_left":[0,0,0,0,0,0,0,0,0],"id":44,"left_children":[1,3,5,-1,7,-1,-1,-1,-1],"loss_changes":[3.0840302E0,3.4641557E0,2.7778032E0,0E0,1.132451E0,0E0,0E0,0E0,0E0],"parents":[2147483647,0,0,1,1,2,2,4,4],"right_children":[2,4,6,-1,8,-1,-1,-1,-1],"split_conditions":[1E0,0E0,4.3605495E-2,2.1838999E-1,1E0,3.511011E-1,-9.965943E-2,-1.4465794E-1,3.8560264E-2],"split_indices":[754,607,324,0,156,0,0,0,0],"split_type":[0,0,0,0,0,0,0,0,0],"sum_hessian":[5.079526E1,4.7494087E1,3.3011742E0,1.7937768E0,4.5700314E1,1.6427759E0,1.6583982E0,4.283869E1,2.86162E0],"tree_param":{"num_deleted":"0","num_feature":"903","num_nodes":"9","size_leaf_vector":"0"}},{"base_weights":[1.2741294E-2,1.2265681E0,-1.3612518E-1,-8.916503E-2,1.6340991E0,-2.4663492E-1,9.739132E-1,4.5004398E-2,6.0799116E-1,-1.03991866E-1,2.3205374E-1,3.6312693E-1,3.214252E-2],"categories":[],"categories_nodes":[],"categories_segments":[],"categories_sizes":[],"default_left":[0,0,0,0,0,0,0,0,0,0,0,0,0],"id":45,"left_children":[1,3,5,-1,7,9,11,-1,-1,-1,-1,-1,-1],"loss_changes":[1.1533152E1,4.814927E0,7.2238064E0,0E0,2.9899683E0,5.631641E0,9.684119E-1,0E0,0E0,0E0,0E0,0E0,0E0],"parents":[2147483647,0,0,1,1,2,2,4,4,5,5,6,6],"right_children":[2,4,6,-1,8,10,12,-1,-1,-1,-1,-1,-1],"split_conditions":[0E0,0E0,1E0,-8.916503E-2,1.0555385E-2,1E0,1E0,4.5004398E-2,6.0799116E-1,-1.03991866E-1,2.3205374E-1,3.6312693E-1,3.214252E-2],"split_indices":[460,425,151,0,121,711,283,0,0,0,0,0,0],"split_type":[0,0,0,0,0,0,0,0,0,0,0,0,0],"sum_hessian":[6.1901524E1,5.9715266E0,5.5929996E1,1.3171834E0,4.6543436E0,5.157342E1,4.3565726E0,1.2626722E0,3.3916712E0,4.757033E1,4.003093E0,3.1111743E0,1.245398E0],"tree_param":{"num_deleted":"0","num_feature":"903","num_nodes":"13","size_leaf_vector":"0"}},{"base_weights":[-4.6525538E-1,1.2904981E-1,-1.5155257E-1,2.203026E-1,-1.01828575E-1],"categories":[],"categories_nodes":[],"categories_segments":[],"categories_sizes":[],"default_left":[0,0,0,0,0],"id":46,"left_children":[1,3,-1,-1,-1],"loss_changes":[1.2208624E0,1.3445544E0,0E0,0E0,0E0],"parents":[2147483647,0,0,1,1],"right_children":[2,4,-1,-1,-1],"split_conditions":[0E0,1.1535996E-2,-1.5155257E-1,2.203026E-1,-1.01828575E-1],"split_indices":[436,887,0,0,0],"split_type":[0,0,0,0,0],"sum_hessian":[4.771188E1,2.8625805E0,4.4849297E1,1.0013252E0,1.8612554E0],"tree_param":{"num_deleted":"0","num_feature":"903","num_nodes":"5","size_leaf_vector":"0"}},{"base_weights":[1.8996243E-1,-2.0740472E-1,8.988693E-1,-2.8056538E-1,3.693586E-1,1.0395204E0,-1.8642424E-1,2.6786688E-1,-1.0136191E-1,1.0147947E-1,3.9683437E-1,-1.1829776E-1,6.341408E-2],"categories":[],"categories_nodes":[],"categories_segments":[],"categories_sizes":[],"default_left":[0,0,0,0,0,0,0,0,0,0,0,0,0],"id":47,"left_children":[1,3,5,7,-1,9,11,-1,-1,-1,-1,-1,-1],"loss_changes":[2.1351639E1,5.498352E0,4.342064E0,3.4895322E0,0E0,4.3615284E0,4.1133624E-1,0E0,0E0,0E0,0E0,0E0,0E0],"parents":[2147483647,0,0,1,1,2,2,3,3,5,5,6,6],"right_children":[2,4,6,8,-1,10,12,-1,-1,-1,-1,-1,-1],"split_conditions":[1E0,1E0,1.2709725E-1,6.2217317E-3,3.693586E-1,5.471244E-2,2.1533963E-1,2.6786688E-1,-1.0136191E-1,1.0147947E-1,3.9683437E-1,-1.1829776E-1,6.341408E-2],"split_indices":[322,94,660,539,0,639,606,0,0,0,0,0,0],"split_type":[0,0,0,0,0,0,0,0,0,0,0,0,0],"sum_hessian":[7.413485E1,4.7959366E1,2.6175478E1,4.6404423E1,1.554945E0,2.3209736E1,2.9657428E0,1.4818014E0,4.4922623E1,7.309106E0,1.590063E1,1.9535291E0,1.0122138E0],"tree_param":{"num_deleted":"0","num_feature":"903","num_nodes":"13","size_leaf_vector":"0"}},{"base_weights":[5.738297E-1,4.9309465E-1,1.7786485E0,9.945843E-1,3.0797017E-1,2.2048635E0,1.5427878E-1,2.5222245E-1,7.891536E-1,3.0056307E-1,2.7375696E-2,1.8681706E-1,7.8196573E-1],"categories":[],"categories_nodes":[],"categories_segments":[],"categories_sizes":[],"default_left":[0,0,0,0,0,0,0,0,0,0,0,0,0],"id":48,"left_children":[1,3,5,7,9,11,-1,-1,-1,-1,-1,-1,-1],"loss_changes":[1.2929314E1,1.2171722E1,3.46311E0,6.795906E0,1.4889085E1,2.2380276E0,0E0,0E0,0E0,0E0,0E0,0E0,0E0],"parents":[2147483647,0,0,1,1,2,2,3,3,4,4,5,5],"right_children":[2,4,6,8,10,12,-1,-1,-1,-1,-1,-1,-1],"split_conditions":[1E0,0E0,3.725298E-2,1E0,0E0,0E0,1.5427878E-1,2.5222245E-1,7.891536E-1,3.0056307E-1,2.7375696E-2,1.8681706E-1,7.8196573E-1],"split_indices":[228,626,459,576,744,572,0,0,0,0,0,0,0],"split_type":[0,0,0,0,0,0,0,0,0,0,0,0,0],"sum_hessian":[1.4093675E2,1.3340643E2,7.530318E0,3.4790047E1,9.8616394E1,5.075562E0,2.4547558E0,3.3183395E1,1.6066487E0,2.2607311E1,7.600908E1,1.5440893E0,3.5314724E0],"tree_param":{"num_deleted":"0","num_feature":"903","num_nodes":"13","size_leaf_vector":"0"}},{"base_weights":[1.1226414E-1,4.012602E-1,-1.4988509E-1,7.7111095E-2,1.0435352E0,-4.4255976E-2,3.6564106E-1,-1.05419986E-1,3.6542693E-1],"categories":[],"categories_nodes":[],"categories_segments":[],"categories_sizes":[],"default_left":[0,0,0,0,0,0,0,0,0],"id":49,"left_children":[1,3,-1,5,7,-1,-1,-1,-1],"loss_changes":[1.2996287E1,1.0267362E1,0E0,8.928128E0,4.4678555E0,0E0,0E0,0E0,0E0],"parents":[2147483647,0,0,1,1,3,3,4,4],"right_children":[2,4,-1,6,8,-1,-1,-1,-1],"split_conditions":[1E0,1E0,-1.4988509E-1,1E0,0E0,-4.4255976E-2,3.6564106E-1,-1.05419986E-1,3.6542693E-1],"split_indices":[109,321,0,52,55,0,0,0,0],"split_type":[0,0,0,0,0,0,0,0,0],"sum_hessian":[7.136172E1,4.87031E1,2.265862E1,3.3111935E1,1.5591165E1,2.8395777E1,4.716156E0,1.6213306E0,1.3969834E1],"tree_param":{"num_deleted":"0","num_feature":"903","num_nodes":"9","size_leaf_vector":"0"}},{"base_weights":[-2.9917747E-1,-3.4699884E-1,4.3998504E-1,-4.3004882E-1,-1.0831134E-2,3.5862145E-1,-9.681059E-2,-1.4353214E-1,1.5569235E-1,3.342753E-1,-1.0510864E-1],"categories":[],"categories_nodes":[],"categories_segments":[],"categories_sizes":[],"default_left":[0,0,0,0,0,0,0,0,0,0,0],"id":50,"left_children":[1,3,5,7,9,-1,-1,-1,-1,-1,-1],"loss_changes":[2.005941E0,1.3857703E0,2.4753487E0,2.0811834E0,4.551178E0,0E0,0E0,0E0,0E0,0E0,0E0],"parents":[2147483647,0,0,1,1,2,2,3,3,4,4],"right_children":[2,4,6,8,10,-1,-1,-1,-1,-1,-1],"split_conditions":[1E0,1.2875977E-1,4.5818888E-2,1E0,5.3407364E-2,3.5862145E-1,-9.681059E-2,-1.4353214E-1,1.5569235E-1,3.342753E-1,-1.0510864E-1],"split_indices":[309,347,42,94,639,0,0,0,0,0,0],"split_type":[0,0,0,0,0,0,0,0,0,0,0],"sum_hessian":[5.1429523E1,4.88027E1,2.6268222E0,3.8910595E1,9.892104E0,1.0346606E0,1.5921617E0,3.749457E1,1.4160255E0,1.7642583E0,8.127846E0],"tree_param":{"num_deleted":"0","num_feature":"903","num_nodes":"11","size_leaf_vector":"0"}},{"base_weights":[-4.453616E-1,-5.582072E-3,-4.831645E-1,2.1942493E-1,-1.1557975E-1,-1.514913E-1,7.088142E-2],"categories":[],"categories_nodes":[],"categories_segments":[],"categories_sizes":[],"default_left":[0,0,0,0,0,0,0],"id":51,"left_children":[1,3,5,-1,-1,-1,-1],"loss_changes":[8.136473E-1,1.6525109E0,8.285055E-1,0E0,0E0,0E0,0E0],"parents":[2147483647,0,0,1,1,2,2],"right_children":[2,4,6,-1,-1,-1,-1],"split_conditions":[0E0,4.220221E-3,5.506548E-1,2.1942493E-1,-1.1557975E-1,-1.514913E-1,7.088142E-2],"split_indices":[891,382,250,0,0,0,0],"split_type":[0,0,0,0,0,0,0],"sum_hessian":[4.8103645E1,3.8984706E0,4.4205177E1,1.0105411E0,2.8879297E0,4.3194042E1,1.0111319E0],"tree_param":{"num_deleted":"0","num_feature":"903","num_nodes":"7","size_leaf_vector":"0"}},{"base_weights":[-3.917719E-1,-1.5160225E-1,8.4163994E-1,4.7176754E-1,-9.824949E-2],"categories":[],"categories_nodes":[],"categories_segments":[],"categories_sizes":[],"default_left":[0,0,0,0,0],"id":52,"left_children":[1,-1,3,-1,-1],"loss_changes":[7.4523487E0,0E0,4.4500146E0,0E0,0E0],"parents":[2147483647,0,0,2,2],"right_children":[2,-1,4,-1,-1],"split_conditions":[1E0,-1.5160225E-1,0E0,4.7176754E-1,-9.824949E-2],"split_indices":[360,0,167,0,0],"split_type":[0,0,0,0,0],"sum_hessian":[4.9165413E1,4.5560616E1,3.604797E0,2.0057747E0,1.5990222E0],"tree_param":{"num_deleted":"0","num_feature":"903","num_nodes":"5","size_leaf_vector":"0"}},{"base_weights":[1.8303624E-1,-1.2082865E-1,5.7793695E-1,-2.2556415E-1,1.1814854E0,3.1220293E-1,1.5873103E0,-1.023523E-1,2.5987852E-1,5.5289652E-2,4.8534438E-1,1.9757984E-2,5.161317E-1,6.0941267E-1,-8.529711E-2],"categories":[],"categories_nodes":[],"categories_segments":[],"categories_sizes":[],"default_left":[0,0,0,0,0,0,0,0,0,0,0,0,0,0,0],"id":53,"left_children":[1,3,5,7,9,11,13,-1,-1,-1,-1,-1,-1,-1,-1],"loss_changes":[8.527931E0,5.812697E0,7.772341E0,5.152059E0,1.0885148E0,8.78335E0,5.713126E0,0E0,0E0,0E0,0E0,0E0,0E0,0E0,0E0],"parents":[2147483647,0,0,1,1,2,2,3,3,4,4,5,5,6,6],"right_children":[2,4,6,8,10,12,14,-1,-1,-1,-1,-1,-1,-1,-1],"split_conditions":[1E0,1E0,1E0,1E0,4.71303E-2,1E0,4.7699213E-3,-1.023523E-1,2.5987852E-1,5.5289652E-2,4.8534438E-1,1.9757984E-2,5.161317E-1,6.0941267E-1,-8.529711E-2],"split_indices":[109,177,74,604,416,881,250,0,0,0,0,0,0,0,0],"split_type":[0,0,0,0,0,0,0,0,0,0,0,0,0,0,0],"sum_hessian":[6.948624E1,3.966171E1,2.9824532E1,3.7474693E1,2.1870153E0,2.4645504E1,5.1790276E0,3.450824E1,2.9664543E0,1.0986181E0,1.0883971E0,2.1867062E1,2.7784417E0,4.1169004E0,1.062127E0],"tree_param":{"num_deleted":"0","num_feature":"903","num_nodes":"15","size_leaf_vector":"0"}},{"base_weights":[3.6063048E-1,6.7690974E-1,-4.650904E-1,8.749697E-1,-1.6532274E-1,6.7523584E-2,-1.5128699E-1,1.4687325E-1,4.5770076E-1,-1.0712872E-1,2.646952E-1],"categories":[],"categories_nodes":[],"categories_segments":[],"categories_sizes":[],"default_left":[0,0,0,0,0,0,0,0,0,0,0],"id":54,"left_children":[1,3,5,7,9,-1,-1,-1,-1,-1,-1],"loss_changes":[2.3329456E1,1.0841677E1,7.898412E-1,1.2312412E1,2.936925E0,0E0,0E0,0E0,0E0,0E0,0E0],"parents":[2147483647,0,0,1,1,2,2,3,3,4,4],"right_children":[2,4,6,8,10,-1,-1,-1,-1,-1,-1],"split_conditions":[1E0,1.024421E-1,2.932E-5,3.368844E-2,1E0,6.7523584E-2,-1.5128699E-1,1.4687325E-1,4.5770076E-1,-1.0712872E-1,2.646952E-1],"split_indices":[109,639,117,121,744,0,0,0,0,0,0],"split_type":[0,0,0,0,0,0,0,0,0,0,0],"sum_hessian":[8.71252E1,6.3126007E1,2.3999193E1,5.1076057E1,1.2049951E1,1.0349755E0,2.2964218E1,3.3177986E1,1.789807E1,1.0742629E1,1.3073211E0],"tree_param":{"num_deleted":"0","num_feature":"903","num_nodes":"11","size_leaf_vector":"0"}},{"base_weights":[-2.99775E-1,-4.252361E-1,1.1728935E0,-4.8427647E-1,4.2129567E-1,5.7131195E-1,-9.039397E-2,-1.5172608E-1,7.157885E-2,3.0781665E-1,-9.234483E-2],"categories":[],"categories_nodes":[],"categories_segments":[],"categories_sizes":[],"default_left":[0,0,0,0,0,0,0,0,0,0,0],"id":55,"left_children":[1,3,5,7,9,-1,-1,-1,-1,-1,-1],"loss_changes":[1.0122701E1,2.6396713E0,5.2703185E0,8.351555E-1,1.9525964E0,0E0,0E0,0E0,0E0,0E0,0E0],"parents":[2147483647,0,0,1,1,2,2,3,3,4,4],"right_children":[2,4,6,8,10,-1,-1,-1,-1,-1,-1],"split_conditions":[7.001586E-1,1E0,1.7777461E-1,8.8918227E-1,2.7644344E-2,5.7131195E-1,-9.039397E-2,-1.5172608E-1,7.157885E-2,3.0781665E-1,-9.234483E-2],"split_indices":[356,189,617,833,232,0,0,0,0,0,0],"split_type":[0,0,0,0,0,0,0,0,0,0,0],"sum_hessian":[5.1088158E1,4.7732895E1,3.3552618E0,4.5020893E1,2.7120013E0,2.0475185E0,1.3077433E0,4.4013573E1,1.0073233E0,1.2597978E0,1.4522035E0],"tree_param":{"num_deleted":"0","num_feature":"903","num_nodes":"11","size_leaf_vector":"0"}},{"base_weights":[-2.82169E-1,-3.6717096E-1,9.311049E-1,-4.4004396E-1,3.1559822E-1,5.659349E-1,-9.723719E-2,1.233937E-1,-1.4466482E-1,-1.1184261E-1,3.236357E-1],"categories":[],"categories_nodes":[],"categories_segments":[],"categories_sizes":[],"default_left":[0,0,0,0,0,0,0,0,0,0,0],"id":56,"left_children":[1,3,5,7,9,-1,-1,-1,-1,-1,-1],"loss_changes":[5.755075E0,2.615172E0,5.0716696E0,1.8279057E0,3.2298074E0,0E0,0E0,0E0,0E0,0E0,0E0],"parents":[2147483647,0,0,1,1,2,2,3,3,4,4],"right_children":[2,4,6,8,10,-1,-1,-1,-1,-1,-1],"split_conditions":[1E0,1E0,2.9769465E-2,1.078E-4,5.7802454E-2,5.659349E-1,-9.723719E-2,1.233937E-1,-1.4466482E-1,-1.1184261E-1,3.236357E-1],"split_indices":[395,445,42,659,887,0,0,0,0,0,0],"split_type":[0,0,0,0,0,0,0,0,0,0,0],"sum_hessian":[5.1488758E1,4.8769352E1,2.7194085E0,4.4387325E1,4.382025E0,1.2586143E0,1.4607942E0,1.6818354E0,4.270549E1,2.572816E0,1.8092088E0],"tree_param":{"num_deleted":"0","num_feature":"903","num_nodes":"11","size_leaf_vector":"0"}},{"base_weights":[-4.2599398E-1,-1.5161777E-1,4.575838E-1,-1.1095277E-1,4.6206114E-1],"categories":[],"categories_nodes":[],"categories_segments":[],"categories_sizes":[],"default_left":[0,0,0,0,0],"id":57,"left_children":[1,-1,3,-1,-1],"loss_changes":[3.6977148E0,0E0,4.6892395E0,0E0,0E0],"parents":[2147483647,0,0,2,2],"right_children":[2,-1,4,-1,-1],"split_conditions":[1E0,-1.5161777E-1,1E0,-1.1095277E-1,4.6206114E-1],"split_indices":[679,0,366,0,0],"split_type":[0,0,0,0,0],"sum_hessian":[4.841152E1,4.4812656E1,3.598863E0,2.413019E0,1.1858438E0],"tree_param":{"num_deleted":"0","num_feature":"903","num_nodes":"5","size_leaf_vector":"0"}},{"base_weights":[5.274084E-1,4.0131864E-1,1.3750342E0,3.0253202E-1,1.4106953E0,7.661966E-2,1.6652341E0,-6.650951E-2,1.5142721E-1,5.939603E-1,8.710551E-2,-1.10542886E-1,1.8640608E-1,1.8288729E-1,5.4434675E-1],"categories":[],"categories_nodes":[],"categories_segments":[],"categories_sizes":[],"default_left":[0,0,0,0,0,0,0,0,0,0,0,0,0,0,0],"id":58,"left_children":[1,3,5,7,9,11,13,-1,-1,-1,-1,-1,-1,-1,-1],"loss_changes":[1.1690363E1,9.656595E0,5.3061028E0,1.0011624E1,4.9994164E0,1.1218133E0,7.432442E-1,0E0,0E0,0E0,0E0,0E0,0E0,0E0,0E0],"parents":[2147483647,0,0,1,1,2,2,3,3,4,4,5,5,6,6],"right_children":[2,4,6,8,10,12,14,-1,-1,-1,-1,-1,-1,-1,-1],"split_conditions":[1.1252068E-1,1E0,1.866373E-2,-1.1169244E-1,1E0,6.310145E-3,-2.616741E-1,-6.650951E-2,1.5142721E-1,5.939603E-1,8.710551E-2,-1.10542886E-1,1.8640608E-1,1.8288729E-1,5.4434675E-1],"split_indices":[272,7,603,671,808,659,671,0,0,0,0,0,0,0,0],"split_type":[0,0,0,0,0,0,0,0,0,0,0,0,0,0,0],"sum_hessian":[1.1354472E2,1.00124084E2,1.3420641E1,9.238243E1,7.741649E0,2.682519E0,1.0738122E1,2.5689928E1,6.6692505E1,4.624865E0,3.116784E0,1.6543415E0,1.0281774E0,1.9600518E0,8.77807E0],"tree_param":{"num_deleted":"0","num_feature":"903","num_nodes":"15","size_leaf_vector":"0"}},{"base_weights":[3.8870704E-1,6.086162E-1,-1.4754264E-1,1.8492731E-1,8.9530015E-1,-2.917085E-2,2.9792663E-1,3.8511315E-1,1.3407035E-1],"categories":[],"categories_nodes":[],"categories_segments":[],"categories_sizes":[],"default_left":[0,0,0,0,0,0,0,0,0],"id":59,"left_children":[1,3,-1,5,7,-1,-1,-1,-1],"loss_changes":[1.945773E1,9.50498E0,0E0,7.710797E0,7.6511765E0,0E0,0E0,0E0,0E0],"parents":[2147483647,0,0,1,1,3,3,4,4],"right_children":[2,4,-1,6,8,-1,-1,-1,-1],"split_conditions":[1E0,1E0,-1.4754264E-1,8.277886E-3,5.03766E-2,-2.917085E-2,2.9792663E-1,3.8511315E-1,1.3407035E-1],"split_indices":[109,829,0,250,416,0,0,0,0],"split_type":[0,0,0,0,0,0,0,0,0],"sum_hessian":[9.794161E1,7.861603E1,1.9325583E1,3.239083E1,4.6225197E1,2.4660488E1,7.730342E0,2.3771269E1,2.2453928E1],"tree_param":{"num_deleted":"0","num_feature":"903","num_nodes":"9","size_leaf_vector":"0"}},{"base_weights":[-3.701011E-1,-4.8095822E-1,1.8843903E-1,-1.5124556E-1,7.161279E-2,1.052345E0,-2.914006E-1,6.06184E-1,-9.0656646E-2,-1.2838508E-1,7.1427956E-2],"categories":[],"categories_nodes":[],"categories_segments":[],"categories_sizes":[],"default_left":[0,0,0,0,0,0,0,0,0,0,0],"id":60,"left_children":[1,3,5,-1,-1,7,9,-1,-1,-1,-1],"loss_changes":[3.2255425E0,8.301916E-1,4.080256E0,0E0,0E0,5.1584444E0,5.8166504E-1,0E0,0E0,0E0,0E0],"parents":[2147483647,0,0,1,1,2,2,5,5,6,6],"right_children":[2,4,6,-1,-1,8,10,-1,-1,-1,-1],"split_conditions":[1E0,1E0,0E0,-1.5124556E-1,7.161279E-2,5.4891273E-2,8.960493E-2,6.06184E-1,-9.0656646E-2,-1.2838508E-1,7.1427956E-2],"split_indices":[294,28,247,0,0,639,887,0,0,0,0],"split_type":[0,0,0,0,0,0,0,0,0,0,0],"sum_hessian":[4.962994E1,4.1526756E1,8.103187E0,4.0520317E1,1.0064372E0,2.4675238E0,5.6356626E0,1.152171E0,1.3153528E0,4.6327186E0,1.0029439E0],"tree_param":{"num_deleted":"0","num_feature":"903","num_nodes":"11","size_leaf_vector":"0"}},{"base_weights":[-4.265595E-1,1.5804209E-1,-4.6524537E-1,-4.85422E-1,7.162732E-2,5.727354E-2,-1.5187895E-1],"categories":[],"categories_nodes":[],"categories_segments":[],"categories_sizes":[],"default_left":[0,0,0,0,0,0,0],"id":61,"left_children":[1,-1,3,5,-1,-1,-1],"loss_changes":[2.0705748E0,0E0,7.99078E-1,7.60355E-1,0E0,0E0,0E0],"parents":[2147483647,0,0,2,2,3,3],"right_children":[2,-1,4,6,-1,-1,-1],"split_conditions":[0E0,1.5804209E-1,4.2817488E-1,9.2014455E-4,7.162732E-2,5.727354E-2,-1.5187895E-1],"split_indices":[203,0,902,232,0,0,0],"split_type":[0,0,0,0,0,0,0],"sum_hessian":[4.849541E1,1.3990848E0,4.7096325E1,4.608599E1,1.0103344E0,1.1337385E0,4.495225E1],"tree_param":{"num_deleted":"0","num_feature":"903","num_nodes":"7","size_leaf_vector":"0"}},{"base_weights":[-3.3444533E-1,-3.6962134E-1,1.9519238E-1,-4.2266136E-1,3.20371E-1,5.9402652E-2,-1.3855143E-1,3.6994287E-1,-1.06868856E-1],"categories":[],"categories_nodes":[],"categories_segments":[],"categories_sizes":[],"default_left":[0,0,0,0,0,0,0,0,0],"id":62,"left_children":[1,3,-1,5,7,-1,-1,-1,-1],"loss_changes":[2.0322323E0,1.985857E0,0E0,1.2436409E0,3.019632E0,0E0,0E0,0E0,0E0],"parents":[2147483647,0,0,1,1,3,3,4,4],"right_children":[2,4,-1,6,8,-1,-1,-1,-1],"split_conditions":[1E0,1E0,1.9519238E-1,2.7488838E-3,6.7110807E-3,5.9402652E-2,-1.3855143E-1,3.6994287E-1,-1.06868856E-1],"split_indices":[574,495,0,887,766,0,0,0,0],"split_type":[0,0,0,0,0,0,0,0,0],"sum_hessian":[5.07076E1,4.9562572E1,1.1450248E0,4.6384422E1,3.178151E0,2.5132475E0,4.3871174E1,1.0027834E0,2.1753676E0],"tree_param":{"num_deleted":"0","num_feature":"903","num_nodes":"9","size_leaf_vector":"0"}},{"base_weights":[-3.190041E-1,4.3396804E-1,-4.4002476E-1,-2.3147547E-1,3.8351294E-1,-4.8236609E-1,1.314901E-1,-1.1964502E-1,6.9002695E-2,-1.5145943E-1,6.032191E-2],"categories":[],"categories_nodes":[],"categories_segments":[],"categories_sizes":[],"default_left":[0,0,0,0,0,0,0,0,0,0,0],"id":63,"left_children":[1,3,5,7,-1,9,-1,-1,-1,-1,-1],"loss_changes":[4.9401636E0,4.6338806E0,1.8997221E0,4.9054453E-1,0E0,7.747812E-1,0E0,0E0,0E0,0E0,0E0],"parents":[2147483647,0,0,1,1,2,2,3,3,5,5],"right_children":[2,4,6,8,-1,10,-1,-1,-1,-1,-1],"split_conditions":[7.972E-3,1.6601143E-2,1E0,4.2118333E-2,3.8351294E-1,1E0,1.314901E-1,-1.1964502E-1,6.9002695E-2,-1.5145943E-1,6.032191E-2],"split_indices":[416,381,611,117,0,780,0,0,0,0,0],"split_type":[0,0,0,0,0,0,0,0,0,0,0],"sum_hessian":[5.111739E1,6.7200937E0,4.4397297E1,4.1642737E0,2.55582E0,4.278555E1,1.6117465E0,3.1557477E0,1.008526E0,4.167491E1,1.1106397E0],"tree_param":{"num_deleted":"0","num_feature":"903","num_nodes":"11","size_leaf_vector":"0"}},{"base_weights":[-2.999631E-1,-3.865569E-1,9.928039E-1,5.3976804E-1,-4.4320384E-1,4.8296788E-1,1.9690773E-2,-8.215529E-2,3.2190824E-1,-1.4504974E-1,5.4458525E-2],"categories":[],"categories_nodes":[],"categories_segments":[],"categories_sizes":[],"default_left":[0,0,0,0,0,0,0,0,0,0,0],"id":64,"left_children":[1,3,5,7,9,-1,-1,-1,-1,-1,-1],"loss_changes":[6.228199E0,2.8445363E0,1.929883E0,1.7308801E0,1.279438E0,0E0,0E0,0E0,0E0,0E0,0E0],"parents":[2147483647,0,0,1,1,2,2,3,3,4,4],"right_children":[2,4,6,8,10,-1,-1,-1,-1,-1,-1],"split_conditions":[1E0,4.669201E-4,2.5669396E-2,1.5074528E-4,1E0,4.8296788E-1,1.9690773E-2,-8.215529E-2,3.2190824E-1,-1.4504974E-1,5.4458525E-2],"split_indices":[73,225,740,361,486,0,0,0,0,0,0],"split_type":[0,0,0,0,0,0,0,0,0,0,0],"sum_hessian":[5.120772E1,4.864997E1,2.5577507E0,2.312123E0,4.6337845E1,1.0935614E0,1.4641894E0,1.1080211E0,1.2041019E0,4.3742523E1,2.595325E0],"tree_param":{"num_deleted":"0","num_feature":"903","num_nodes":"11","size_leaf_vector":"0"}},{"base_weights":[-1.9753492E-1,-3.448571E-1,7.5203377E-1,-1.15810536E-1,-1.4956428E-1,4.4094923E-1,-2.4416972E-2,-1.0987336E-1,1.895637E-1,-1.2040976E-1,1.871164E-1],"categories":[],"categories_nodes":[],"categories_segments":[],"categories_sizes":[],"default_left":[0,0,0,0,0,0,0,0,0,0,0],"id":65,"left_children":[1,3,5,7,-1,-1,9,-1,-1,-1,-1],"loss_changes":[8.0662365E0,1.667057E0,4.3884907E0,4.159395E0,0E0,0E0,1.4072268E0,0E0,0E0,0E0,0E0],"parents":[2147483647,0,0,1,1,2,2,3,3,6,6],"right_children":[2,4,6,8,-1,-1,10,-1,-1,-1,-1],"split_conditions":[1E0,1.4628145E-2,6.1458824E-3,5.0213624E-2,-1.4956428E-1,4.4094923E-1,2.4256141E-1,-1.0987336E-1,1.895637E-1,-1.2040976E-1,1.871164E-1],"split_indices":[745,789,809,899,0,0,635,0,0,0,0],"split_type":[0,0,0,0,0,0,0,0,0,0,0],"sum_hessian":[5.480636E1,4.7996674E1,6.8096843E0,1.997751E1,2.8019163E1,3.0744598E0,3.7352247E0,1.5347219E1,4.630292E0,2.602427E0,1.1327976E0],"tree_param":{"num_deleted":"0","num_feature":"903","num_nodes":"11","size_leaf_vector":"0"}},{"base_weights":[-2.93677E-1,1.8868677E-1,-3.4963867E-1,-4.2914787E-1,4.211022E-1,-1.4232409E-1,3.2869276E-2,2.812936E-1,-9.778514E-2],"categories":[],"categories_nodes":[],"categories_segments":[],"categories_sizes":[],"default_left":[0,0,0,0,0,0,0,0,0],"id":66,"left_children":[1,-1,3,5,7,-1,-1,-1,-1],"loss_changes":[2.6155496E0,0E0,2.9008393E0,1.0452414E0,2.1021314E0,0E0,0E0,0E0,0E0],"parents":[2147483647,0,0,2,2,3,3,4,4],"right_children":[2,-1,4,6,8,-1,-1,-1,-1],"split_conditions":[0E0,1.8868677E-1,1E0,1E0,3.1178694E-2,-1.4232409E-1,3.2869276E-2,2.812936E-1,-9.778514E-2],"split_indices":[0,0,754,156,809,0,0,0,0],"split_type":[0,0,0,0,0,0,0,0,0],"sum_hessian":[4.5398335E1,2.0106103E0,4.3387722E1,3.9732174E1,3.6555479E0,3.6762527E1,2.9696481E0,2.0103693E0,1.6451787E0],"tree_param":{"num_deleted":"0","num_feature":"903","num_nodes":"9","size_leaf_vector":"0"}},{"base_weights":[1.6482871E-2,-1.4488485E-1,9.063454E-1,-3.0214372E-1,5.568891E-1,-8.272461E-2,1.2528418E0,1.714639E-1,-1.0900745E-1,-1.1899784E-1,3.0512735E-1,-9.308181E-2,6.912062E-2,4.4100586E-1,3.187436E-2],"categories":[],"categories_nodes":[],"categories_segments":[],"categories_sizes":[],"default_left":[0,0,0,0,0,0,0,0,0,0,0,0,0,0,0],"id":67,"left_children":[1,3,5,7,9,11,13,-1,-1,-1,-1,-1,-1,-1,-1],"loss_changes":[8.859067E0,5.941473E0,3.3483486E0,2.5279653E0,4.760229E0,3.13341E-1,1.6052084E0,0E0,0E0,0E0,0E0,0E0,0E0,0E0,0E0],"parents":[2147483647,0,0,1,1,2,2,3,3,4,4,5,5,6,6],"right_children":[2,4,6,8,10,12,14,-1,-1,-1,-1,-1,-1,-1,-1],"split_conditions":[4.0148738E-1,1.2381425E0,4.882342E-1,2.0612893E-4,1.7975021E-2,2.3266193E-2,1.8235083E-1,1.714639E-1,-1.0900745E-1,-1.1899784E-1,3.0512735E-1,-9.308181E-2,6.912062E-2,4.4100586E-1,3.187436E-2],"split_indices":[121,671,671,575,603,684,902,0,0,0,0,0,0,0,0],"split_type":[0,0,0,0,0,0,0,0,0,0,0,0,0,0,0],"sum_hessian":[5.9780277E1,5.1312458E1,8.467821E0,4.238415E1,8.928308E0,2.3943703E0,6.073451E0,2.2293067E0,4.0154842E1,2.9512758E0,5.977031E0,1.3919556E0,1.0024148E0,4.8691115E0,1.2043393E0],"tree_param":{"num_deleted":"0","num_feature":"903","num_nodes":"15","size_leaf_vector":"0"}},{"base_weights":[-4.5517236E-1,1.3931915E-1,-1.5033117E-1,2.1785112E-1,-1.0008707E-1],"categories":[],"categories_nodes":[],"categories_segments":[],"categories_sizes":[],"default_left":[0,0,0,0,0],"id":68,"left_children":[1,3,-1,-1,-1],"loss_changes":[1.2160168E0,1.2950108E0,0E0,0E0,0E0],"parents":[2147483647,0,0,1,1],"right_children":[2,4,-1,-1,-1],"split_conditions":[0E0,2.1270663E-2,-1.5033117E-1,2.1785112E-1,-1.0008707E-1],"split_indices":[436,902,0,0,0],"split_type":[0,0,0,0,0],"sum_hessian":[4.0976345E1,2.793027E0,3.8183315E1,1.0074733E0,1.7855536E0],"tree_param":{"num_deleted":"0","num_feature":"903","num_nodes":"5","size_leaf_vector":"0"}},{"base_weights":[1.6284245E-1,-1.8291889E-1,6.96554E-1,-3.0620393E-1,6.5689903E-1,2.9810214E-1,1.0670025E0,-1.2404773E-1,7.55192E-2,-3.1885907E-2,3.6496064E-1,-1.293443E-1,1.5389183E-1,3.4580004E-1,6.1688337E-2],"categories":[],"categories_nodes":[],"categories_segments":[],"categories_sizes":[],"default_left":[0,0,0,0,0,0,0,0,0,0,0,0,0,0,0],"id":69,"left_children":[1,3,5,7,9,11,13,-1,-1,-1,-1,-1,-1,-1,-1],"loss_changes":[1.3689338E1,4.900766E0,3.9773989E0,2.5141947E0,2.7467456E0,2.6355531E0,8.4714127E-1,0E0,0E0,0E0,0E0,0E0,0E0,0E0,0E0],"parents":[2147483647,0,0,1,1,2,2,3,3,4,4,5,5,6,6],"right_children":[2,4,6,8,10,12,14,-1,-1,-1,-1,-1,-1,-1,-1],"split_conditions":[1E0,1E0,1E0,1E0,1E0,3.227377E-2,1.0682173E-1,-1.2404773E-1,7.55192E-2,-3.1885907E-2,3.6496064E-1,-1.293443E-1,1.5389183E-1,3.4580004E-1,6.1688337E-2],"split_indices":[322,745,4,845,465,364,36,0,0,0,0,0,0,0,0],"split_type":[0,0,0,0,0,0,0,0,0,0,0,0,0,0,0],"sum_hessian":[7.24917E1,4.4390736E1,2.810096E1,3.9262417E1,5.12832E0,1.4408251E1,1.3692709E1,3.3147232E1,6.1151857E0,2.512315E0,2.6160052E0,3.0500696E0,1.1358181E1,1.2146556E1,1.5461538E0],"tree_param":{"num_deleted":"0","num_feature":"903","num_nodes":"15","size_leaf_vector":"0"}},{"base_weights":[4.5869958E-1,5.579252E-1,-1.9153629E-1,6.871521E-1,5.004556E-2,-3.6706224E-1,2.0913771E-1,1.5296635E-1,3.371886E-1,-2.5997447E-2,2.9851177E-1,-1.3695809E-1,1.0976289E-1],"categories":[],"categories_nodes":[],"categories_segments":[],"categories_sizes":[],"default_left":[0,0,0,0,0,0,0,0,0,0,0,0,0],"id":70,"left_children":[1,3,5,7,9,11,-1,-1,-1,-1,-1,-1,-1],"loss_changes":[9.612759E0,8.37183E0,3.414649E0,7.3266907E0,3.5816765E0,1.3188465E0,0E0,0E0,0E0,0E0,0E0,0E0,0E0],"parents":[2147483647,0,0,1,1,2,2,3,3,4,4,5,5],"right_children":[2,4,6,8,10,12,-1,-1,-1,-1,-1,-1,-1],"split_conditions":[1E0,4.0766742E-2,1E0,1E0,2E0,1E0,2.0913771E-1,1.5296635E-1,3.371886E-1,-2.5997447E-2,2.9851177E-1,-1.3695809E-1,1.0976289E-1],"split_indices":[158,459,394,0,585,647,0,0,0,0,0,0,0],"split_type":[0,0,0,0,0,0,0,0,0,0,0,0,0],"sum_hessian":[1.4633237E2,1.2708173E2,1.9250639E1,1.0102385E2,2.6057878E1,1.65656E1,2.68504E0,7.3403046E1,2.7620808E1,2.355822E1,2.4996579E0,1.5099621E1,1.4659783E0],"tree_param":{"num_deleted":"0","num_feature":"903","num_nodes":"13","size_leaf_vector":"0"}},{"base_weights":[9.4379276E-2,3.2464936E-1,-1.4814925E-1,1.2670569E-1,9.8445153E-1,-3.9585397E-2,1.7671022E-1,3.5421574E-1,-9.005007E-2],"categories":[],"categories_nodes":[],"categories_segments":[],"categories_sizes":[],"default_left":[0,0,0,0,0,0,0,0,0],"id":71,"left_children":[1,3,-1,5,7,-1,-1,-1,-1],"loss_changes":[9.88508E0,6.6929564E0,0E0,5.0168595E0,3.3544683E0,0E0,0E0,0E0,0E0],"parents":[2147483647,0,0,1,1,3,3,4,4],"right_children":[2,4,-1,6,8,-1,-1,-1,-1],"split_conditions":[1E0,1E0,-1.4814925E-1,1E0,1E0,-3.9585397E-2,1.7671022E-1,3.5421574E-1,-9.005007E-2],"split_indices":[109,819,0,321,80,0,0,0,0],"split_type":[0,0,0,0,0,0,0,0,0],"sum_hessian":[7.079742E1,5.120138E1,1.9596037E1,4.0302486E1,1.0898895E1,2.6302002E1,1.40004835E1,9.524583E0,1.3743126E0],"tree_param":{"num_deleted":"0","num_feature":"903","num_nodes":"9","size_leaf_vector":"0"}},{"base_weights":[-2.7467778E-1,-3.1202012E-1,2.0741475E-1,1.9653346E-1,-3.6358932E-1,2.7475536E-1,-1.0999867E-1,-1.21849544E-1,1.1647858E-1],"categories":[],"categories_nodes":[],"categories_segments":[],"categories_sizes":[],"default_left":[0,0,0,0,0,0,0,0,0],"id":72,"left_children":[1,3,-1,5,7,-1,-1,-1,-1],"loss_changes":[1.9175375E0,1.2806654E0,0E0,2.318513E0,1.5089841E0,0E0,0E0,0E0,0E0],"parents":[2147483647,0,0,1,1,3,3,4,4],"right_children":[2,4,-1,6,8,-1,-1,-1,-1],"split_conditions":[1.1430056E0,0E0,2.0741475E-1,1.2117715E-2,1E0,2.7475536E-1,-1.0999867E-1,-1.21849544E-1,1.1647858E-1],"split_indices":[771,778,0,478,190,0,0,0,0],"split_type":[0,0,0,0,0,0,0,0,0],"sum_hessian":[4.617434E1,4.510775E1,1.0665888E0,3.8941574E0,4.1213593E1,1.4350861E0,2.4590714E0,3.943997E1,1.7736254E0],"tree_param":{"num_deleted":"0","num_feature":"903","num_nodes":"9","size_leaf_vector":"0"}},{"base_weights":[-4.3257344E-1,5.735373E-3,-4.7549608E-1,2.1702437E-1,-1.1407101E-1,-1.502327E-1,6.894375E-2],"categories":[],"categories_nodes":[],"categories_segments":[],"categories_sizes":[],"default_left":[0,0,0,0,0,0,0],"id":73,"left_children":[1,3,5,-1,-1,-1,-1],"loss_changes":[8.0330706E-1,1.6001441E0,8.063526E-1,0E0,0E0,0E0,0E0],"parents":[2147483647,0,0,1,1,2,2],"right_children":[2,4,6,-1,-1,-1,-1],"split_conditions":[0E0,1.5930625E-2,5.506548E-1,2.1702437E-1,-1.1407101E-1,-1.502327E-1,6.894375E-2],"split_indices":[891,809,250,0,0,0,0],"split_type":[0,0,0,0,0,0,0],"sum_hessian":[4.1553764E1,3.783595E0,3.777017E1,1.0174587E0,2.7661364E0,3.6743214E1,1.026954E0],"tree_param":{"num_deleted":"0","num_feature":"903","num_nodes":"7","size_leaf_vector":"0"}},{"base_weights":[-3.787704E-1,-1.503882E-1,6.723789E-1,3.425625E-1,-9.2726305E-2],"categories":[],"categories_nodes":[],"categories_segments":[],"categories_sizes":[],"default_left":[0,0,0,0,0],"id":74,"left_children":[1,-1,3,-1,-1],"loss_changes":[5.9744453E0,0E0,2.6553414E0,0E0,0E0],"parents":[2147483647,0,0,2,2],"right_children":[2,-1,4,-1,-1],"split_conditions":[1E0,-1.503882E-1,0E0,3.425625E-1,-9.2726305E-2],"split_indices":[360,0,167,0,0],"split_type":[0,0,0,0,0],"sum_hessian":[4.2771732E1,3.8775143E1,3.9965901E0,2.5928383E0,1.4037517E0],"tree_param":{"num_deleted":"0","num_feature":"903","num_nodes":"5","size_leaf_vector":"0"}},{"base_weights":[1.6090457E-1,7.932804E-2,1.0615363E0,-1.966767E-1,3.791509E-1,1.4449162E0,-8.525136E-2,-9.481056E-2,1.9860598E-1,4.85131E-2,3.8736668E-1,4.037786E-2,5.505473E-1],"categories":[],"categories_nodes":[],"categories_segments":[],"categories_sizes":[],"default_left":[0,0,0,0,0,0,0,0,0,0,0,0,0],"id":75,"left_children":[1,3,5,7,9,11,-1,-1,-1,-1,-1,-1,-1],"loss_changes":[5.149666E0,5.5695057E0,3.4214149E0,3.8203237E0,6.171046E0,2.159501E0,0E0,0E0,0E0,0E0,0E0,0E0,0E0],"parents":[2147483647,0,0,1,1,2,2,3,3,4,4,5,5],"right_children":[2,4,6,8,10,12,-1,-1,-1,-1,-1,-1,-1],"split_conditions":[1E0,1E0,6.717366E-2,1E0,1E0,1.647541E-1,-8.525136E-2,-9.481056E-2,1.9860598E-1,4.85131E-2,3.8736668E-1,4.037786E-2,5.505473E-1],"split_indices":[177,109,603,604,819,635,0,0,0,0,0,0,0],"split_type":[0,0,0,0,0,0,0,0,0,0,0,0,0],"sum_hessian":[7.023786E1,6.540202E1,4.83584E0,3.423276E1,3.1169262E1,3.7062426E0,1.1295975E0,3.060995E1,3.6228116E0,2.6119576E1,5.049686E0,1.1591226E0,2.54712E0],"tree_param":{"num_deleted":"0","num_feature":"903","num_nodes":"13","size_leaf_vector":"0"}},{"base_weights":[2.8124914E-1,4.9973345E-1,-4.536858E-1,3.851246E-1,1.6317115E0,7.056307E-2,-1.4941391E-1,2.6776177E-1,4.8065897E-2,1.0568689E-1,5.8614606E-1],"categories":[],"categories_nodes":[],"categories_segments":[],"categories_sizes":[],"default_left":[0,0,0,0,0,0,0,0,0,0,0],"id":76,"left_children":[1,3,5,7,9,-1,-1,-1,-1,-1,-1],"loss_changes":[1.5245907E1,8.787346E0,7.88198E-1,7.5273886E0,1.9342308E0,0E0,0E0,0E0,0E0,0E0,0E0],"parents":[2147483647,0,0,1,1,2,2,3,3,4,4],"right_children":[2,4,6,8,10,-1,-1,-1,-1,-1,-1],"split_conditions":[1E0,1E0,1.3216664E-4,-7.116191E-1,3.898994E-4,7.056307E-2,-1.4941391E-1,2.6776177E-1,4.8065897E-2,1.0568689E-1,5.8614606E-1],"split_indices":[109,486,250,671,784,0,0,0,0,0,0],"split_type":[0,0,0,0,0,0,0,0,0,0,0],"sum_hessian":[9.253566E1,7.1576996E1,2.095866E1,6.621335E1,5.3636494E0,1.0076797E0,1.995098E1,1.9423317E1,4.679003E1,1.4998628E0,3.8637867E0],"tree_param":{"num_deleted":"0","num_feature":"903","num_nodes":"11","size_leaf_vector":"0"}},{"base_weights":[-2.786924E-1,-4.533563E-1,6.8707997E-1,-1.5060449E-1,1.2804802E-1,1.2970823E0,-1.1149349E-1,4.782113E-1,4.94687E-2],"categories":[],"categories_nodes":[],"categories_segments":[],"categories_sizes":[],"default_left":[0,0,0,0,0,0,0,0,0],"id":77,"left_children":[1,3,5,-1,-1,7,-1,-1,-1],"loss_changes":[8.175171E0,1.9308453E0,5.349782E0,0E0,0E0,1.4197779E0,0E0,0E0,0E0],"parents":[2147483647,0,0,1,1,2,2,5,5],"right_children":[2,4,6,-1,-1,8,-1,-1,-1],"split_conditions":[4.762477E-1,1E0,7.969622E-2,-1.5060449E-1,1.2804802E-1,9.8294556E-2,-1.1149349E-1,4.782113E-1,4.94687E-2],"split_indices":[211,505,121,0,0,347,0,0,0],"split_type":[0,0,0,0,0,0,0,0,0],"sum_hessian":[4.561738E1,3.9080147E1,6.5372286E0,3.744002E1,1.6401278E0,4.00471E0,2.5325181E0,2.849422E0,1.1552882E0],"tree_param":{"num_deleted":"0","num_feature":"903","num_nodes":"9","size_leaf_vector":"0"}},{"base_weights":[-2.590025E-1,7.272216E-1,-3.4999165E-1,-7.965015E-2,3.3597785E-1,-4.3171987E-1,3.9948538E-1,-1.4266141E-1,7.3528826E-2,3.0179265E-1,-1.0316011E-1],"categories":[],"categories_nodes":[],"categories_segments":[],"categories_sizes":[],"default_left":[0,0,0,0,0,0,0,0,0,0,0],"id":78,"left_children":[1,3,5,-1,-1,7,9,-1,-1,-1,-1],"loss_changes":[4.491619E0,1.9788401E0,2.861754E0,0E0,0E0,1.304843E0,2.5262897E0,0E0,0E0,0E0,0E0],"parents":[2147483647,0,0,1,1,2,2,5,5,6,6],"right_children":[2,4,6,-1,-1,8,10,-1,-1,-1,-1],"split_conditions":[4.4752E-3,2.5100757E-3,1E0,-7.965015E-2,3.3597785E-1,1E0,1.1331943E-2,-1.4266141E-1,7.3528826E-2,3.0179265E-1,-1.0316011E-1],"split_indices":[635,382,173,0,0,395,828,0,0,0,0],"split_type":[0,0,0,0,0,0,0,0,0,0,0],"sum_hessian":[4.6217537E1,3.3132353E0,4.29043E1,1.0309651E0,2.2822702E0,3.906802E1,3.8362784E0,3.6971798E1,2.0962236E0,1.9180634E0,1.918215E0],"tree_param":{"num_deleted":"0","num_feature":"903","num_nodes":"11","size_leaf_vector":"0"}},{"base_weights":[-4.1136143E-1,-1.5038636E-1,4.047167E-1,3.3434963E-1,-1.0540828E-1],"categories":[],"categories_nodes":[],"categories_segments":[],"categories_sizes":[],"default_left":[0,0,0,0,0],"id":79,"left_children":[1,-1,3,-1,-1],"loss_changes":[3.3565216E0,0E0,2.9774957E0,0E0,0E0],"parents":[2147483647,0,0,2,2],"right_children":[2,-1,4,-1,-1],"split_conditions":[1E0,-1.5038636E-1,4.821172E-2,3.3434963E-1,-1.0540828E-1],"split_indices":[679,0,635,0,0],"split_type":[0,0,0,0,0],"sum_hessian":[4.1972755E1,3.8154152E1,3.818602E0,1.7250891E0,2.093513E0],"tree_param":{"num_deleted":"0","num_feature":"903","num_nodes":"5","size_leaf_vector":"0"}},{"base_weights":[4.0170923E-1,8.5918635E-2,6.258399E-1,-1.926986E-1,5.3717524E-1,-2.7638376E-2,7.289808E-1,2.2584312E-1,-9.587369E-2,4.0946522E-1,2.9096384E-2,2.3515777E-1,-1.0519242E-1,2.513377E-1,-2.8396796E-2],"categories":[],"categories_nodes":[],"categories_segments":[],"categories_sizes":[],"default_left":[0,0,0,0,0,0,0,0,0,0,0,0,0,0,0],"id":80,"left_children":[1,3,5,7,9,11,13,-1,-1,-1,-1,-1,-1,-1,-1],"loss_changes":[8.7955E0,6.774682E0,4.9381847E0,4.2644324E0,7.3436346E0,3.1346104E0,5.730564E0,0E0,0E0,0E0,0E0,0E0,0E0,0E0,0E0],"parents":[2147483647,0,0,1,1,2,2,3,3,4,4,5,5,6,6],"right_children":[2,4,6,8,10,12,14,-1,-1,-1,-1,-1,-1,-1,-1],"split_conditions":[5.7262078E-2,7.1320665E-1,-3.3666492E-1,0E0,1.0021921E-2,0E0,4.6311507E-1,2.2584312E-1,-9.587369E-2,4.0946522E-1,2.9096384E-2,2.3515777E-1,-1.0519242E-1,2.513377E-1,-2.8396796E-2],"split_indices":[639,671,671,885,117,800,757,0,0,0,0,0,0,0,0],"split_type":[0,0,0,0,0,0,0,0,0,0,0,0,0,0,0],"sum_hessian":[1.240279E2,5.206038E1,7.1967514E1,3.2541443E1,1.9518936E1,9.910266E0,6.205725E1,3.2664819E0,2.9274961E1,6.047255E0,1.3471681E1,2.4153268E0,7.494939E0,5.4800335E1,7.2569165E0],"tree_param":{"num_deleted":"0","num_feature":"903","num_nodes":"15","size_leaf_vector":"0"}},{"base_weights":[3.0459744E-1,4.5988372E-1,-1.4586711E-1,3.2782078E-1,1.0189043E0,1.4203218E-1,-4.5356087E-2,-1.2532216E-1,3.59515E-1],"categories":[],"categories_nodes":[],"categories_segments":[],"categories_sizes":[],"default_left":[0,0,0,0,0,0,0,0,0],"id":81,"left_children":[1,3,-1,5,7,-1,-1,-1,-1],"loss_changes":[1.3137566E1,6.1931725E0,0E0,5.16301E0,4.7347355E0,0E0,0E0,0E0,0E0],"parents":[2147483647,0,0,1,1,3,3,4,4],"right_children":[2,4,-1,6,8,-1,-1,-1,-1],"split_conditions":[1E0,1E0,-1.4586711E-1,7.661964E-2,5.8301594E-3,1.4203218E-1,-4.5356087E-2,-1.2532216E-1,3.59515E-1],"split_indices":[109,851,0,606,902,0,0,0,0],"split_type":[0,0,0,0,0,0,0,0,0],"sum_hessian":[1.04159386E2,8.741331E1,1.6746073E1,7.199229E1,1.5421023E1,5.5217594E1,1.6774693E1,1.5651573E0,1.3855866E1],"tree_param":{"num_deleted":"0","num_feature":"903","num_nodes":"9","size_leaf_vector":"0"}},{"base_weights":[-3.5124487E-1,-4.7305694E-1,1.795054E-1,-1.5000643E-1,7.023878E-2,8.116111E-1,-2.680668E-1,4.186919E-1,-8.70901E-2,-1.24905005E-1,7.142619E-2],"categories":[],"categories_nodes":[],"categories_segments":[],"categories_sizes":[],"default_left":[0,0,0,0,0,0,0,0,0,0,0],"id":82,"left_children":[1,3,5,-1,-1,7,9,-1,-1,-1,-1],"loss_changes":[2.9680629E0,8.1395435E-1,2.7777443E0,0E0,0E0,2.9791028E0,5.531848E-1,0E0,0E0,0E0,0E0],"parents":[2147483647,0,0,1,1,2,2,5,5,6,6],"right_children":[2,4,6,-1,-1,8,10,-1,-1,-1,-1],"split_conditions":[1E0,4.2558858E-1,0E0,-1.5000643E-1,7.023878E-2,5.4891273E-2,1.16576515E-1,4.186919E-1,-8.70901E-2,-1.24905005E-1,7.142619E-2],"split_indices":[294,42,247,0,0,639,251,0,0,0,0],"split_type":[0,0,0,0,0,0,0,0,0,0,0],"sum_hessian":[4.3594994E1,3.5545643E1,8.049351E0,3.4522278E1,1.0233648E0,2.9996228E0,5.049728E0,1.7862974E0,1.2133253E0,4.0427775E0,1.0069503E0],"tree_param":{"num_deleted":"0","num_feature":"903","num_nodes":"11","size_leaf_vector":"0"}},{"base_weights":[-4.1126797E-1,2.4221176E-1,-4.7617143E-1,-1.0268504E-1,2.3708554E-1,-1.5034267E-1,6.7224756E-2],"categories":[],"categories_nodes":[],"categories_segments":[],"categories_sizes":[],"default_left":[0,0,0,0,0,0,0],"id":83,"left_children":[1,3,5,-1,-1,-1,-1],"loss_changes":[1.9421687E0,1.7294488E0,8.0330753E-1,0E0,0E0,0E0,0E0],"parents":[2147483647,0,0,1,1,2,2],"right_children":[2,4,6,-1,-1,-1,-1],"split_conditions":[2.8821137E-3,6.0194E-3,8.568721E-1,-1.0268504E-1,2.3708554E-1,-1.5034267E-1,6.7224756E-2],"split_indices":[251,42,320,0,0,0,0],"split_type":[0,0,0,0,0,0,0],"sum_hessian":[4.2072403E1,3.5542822E0,3.851812E1,1.9016926E0,1.6525894E0,3.7466423E1,1.0516974E0],"tree_param":{"num_deleted":"0","num_feature":"903","num_nodes":"7","size_leaf_vector":"0"}},{"base_weights":[-3.111482E-1,-4.0138873E-1,1.8468425E-1,-4.4875345E-1,1.10015325E-1,9.1207516E-1,-2.5165027E-1,6.5931015E-2,-1.4224756E-1,5.6066334E-2,3.6851522E-1,7.031032E-2,-1.2199331E-1],"categories":[],"categories_nodes":[],"categories_segments":[],"categories_sizes":[],"default_left":[0,0,0,0,0,0,0,0,0,0,0,0,0],"id":84,"left_children":[1,3,5,7,-1,9,11,-1,-1,-1,-1,-1,-1],"loss_changes":[2.137074E0,1.5951214E0,2.7000341E0,7.408838E-1,0E0,4.8950124E-1,5.208529E-1,0E0,0E0,0E0,0E0,0E0,0E0],"parents":[2147483647,0,0,1,1,2,2,3,3,5,5,6,6],"right_children":[2,4,6,8,-1,10,12,-1,-1,-1,-1,-1,-1],"split_conditions":[1.1631516E0,1E0,2.117592E-2,2.0643892E-3,1.10015325E-1,1.2532925E-2,5.1646758E-2,6.5931015E-2,-1.4224756E-1,5.6066334E-2,3.6851522E-1,7.031032E-2,-1.2199331E-1],"split_indices":[671,136,364,874,0,251,539,0,0,0,0,0,0],"split_type":[0,0,0,0,0,0,0,0,0,0,0,0,0],"sum_hessian":[4.5105278E1,3.8321342E1,6.783935E0,3.6487156E1,1.8341874E0,2.1348028E0,4.6491323E0,1.0557182E0,3.5431435E1,1.1315006E0,1.0033022E0,1.0003157E0,3.6488166E0],"tree_param":{"num_deleted":"0","num_feature":"903","num_nodes":"13","size_leaf_vector":"0"}},{"base_weights":[-2.981425E-1,3.4616077E-1,-4.265773E-1,-1.1853119E-1,8.169761E-1,-4.7454768E-1,1.11067735E-1,-8.513501E-2,3.5659152E-1,6.1610457E-2,-1.5016435E-1],"categories":[],"categories_nodes":[],"categories_segments":[],"categories_sizes":[],"default_left":[0,0,0,0,0,0,0,0,0,0,0],"id":85,"left_children":[1,3,5,-1,7,9,-1,-1,-1,-1,-1],"loss_changes":[4.0117135E0,3.2240434E0,1.6809797E0,0E0,2.5505848E0,7.6719856E-1,0E0,0E0,0E0,0E0,0E0],"parents":[2147483647,0,0,1,1,2,2,4,4,5,5],"right_children":[2,4,6,-1,8,10,-1,-1,-1,-1,-1],"split_conditions":[7.972E-3,1E0,1E0,-1.1853119E-1,1.0211439E-3,1.97907E-4,1.11067735E-1,-8.513501E-2,3.5659152E-1,6.1610457E-2,-1.5016435E-1],"split_indices":[416,109,611,0,121,117,0,0,0,0,0],"split_type":[0,0,0,0,0,0,0,0,0,0,0],"sum_hessian":[4.5694912E1,7.313075E0,3.8381836E1,2.903124E0,4.4099507E0,3.6583797E1,1.79804E0,1.172824E0,3.237127E0,1.0933522E0,3.5490444E1],"tree_param":{"num_deleted":"0","num_feature":"903","num_nodes":"11","size_leaf_vector":"0"}},{"base_weights":[-2.760038E-1,-3.673823E-1,7.7966166E-1,5.533555E-1,-4.305285E-1,3.6288273E-1,1.210153E-2,-8.411476E-2,3.3803827E-1,1.8756362E-2,-1.4262034E-1],"categories":[],"categories_nodes":[],"categories_segments":[],"categories_sizes":[],"default_left":[0,0,0,0,0,0,0,0,0,0,0],"id":86,"left_children":[1,3,5,7,9,-1,-1,-1,-1,-1,-1],"loss_changes":[4.7979207E0,2.7802825E0,1.237319E0,1.8667309E0,9.4740725E-1,0E0,0E0,0E0,0E0,0E0,0E0],"parents":[2147483647,0,0,1,1,2,2,3,3,4,4],"right_children":[2,4,6,8,10,-1,-1,-1,-1,-1,-1],"split_conditions":[1E0,1.8403232E-4,5.008681E-3,1E0,1.451905E-3,3.6288273E-1,1.210153E-2,-8.411476E-2,3.3803827E-1,1.8756362E-2,-1.4262034E-1],"split_indices":[73,121,36,410,789,0,0,0,0,0,0],"split_type":[0,0,0,0,0,0,0,0,0,0,0],"sum_hessian":[4.576807E1,4.2722034E1,3.046033E0,2.243684E0,4.047835E1,1.5237851E0,1.5222478E0,1.1225821E0,1.1211021E0,3.3438315E0,3.713452E1],"tree_param":{"num_deleted":"0","num_feature":"903","num_nodes":"11","size_leaf_vector":"0"}},{"base_weights":[-1.7934974E-1,-2.5096884E-1,5.074737E-1,-4.1176903E-1,5.9264004E-1,-1.3679154E-1,1.2328035E-1,2.8400347E-1,-1.0762132E-1],"categories":[],"categories_nodes":[],"categories_segments":[],"categories_sizes":[],"default_left":[0,0,0,0,0,0,0,0,0],"id":87,"left_children":[1,3,-1,5,7,-1,-1,-1,-1],"loss_changes":[7.3149233E0,7.0806327E0,0E0,1.7481751E0,3.1953323E0,0E0,0E0,0E0,0E0],"parents":[2147483647,0,0,1,1,3,3,4,4],"right_children":[2,4,-1,6,8,-1,-1,-1,-1],"split_conditions":[1E0,1E0,5.074737E-1,1E0,1.1328004E-1,-1.3679154E-1,1.2328035E-1,2.8400347E-1,-1.0762132E-1],"split_indices":[162,745,0,164,671,0,0,0,0],"split_type":[0,0,0,0,0,0,0,0,0],"sum_hessian":[5.042301E1,4.939792E1,1.0250932E0,4.1919537E1,7.478381E0,4.0205135E1,1.714403E0,5.45379E0,2.0245907E0],"tree_param":{"num_deleted":"0","num_feature":"903","num_nodes":"9","size_leaf_vector":"0"}},{"base_weights":[-2.704483E-1,5.3363484E-1,-3.3061072E-1,3.2443178E-1,-8.4342726E-2,-4.1608602E-1,3.6024165E-1,2.4919854E-2,-1.4040627E-1,2.3217665E-1,-9.881595E-2],"categories":[],"categories_nodes":[],"categories_segments":[],"categories_sizes":[],"default_left":[0,0,0,0,0,0,0,0,0,0,0],"id":88,"left_children":[1,3,5,-1,-1,7,9,-1,-1,-1,-1],"loss_changes":[2.1928658E0,1.7699068E0,2.4764233E0,0E0,0E0,9.598031E-1,1.6453617E0,0E0,0E0,0E0,0E0],"parents":[2147483647,0,0,1,1,2,2,5,5,6,6],"right_children":[2,4,6,-1,-1,8,10,-1,-1,-1,-1],"split_conditions":[0E0,2.657123E-2,1E0,3.2443178E-1,-8.4342726E-2,6.0939877E-3,4.3605495E-2,2.4919854E-2,-1.4040627E-1,2.3217665E-1,-9.881595E-2],"split_indices":[561,899,754,0,0,809,324,0,0,0,0],"split_type":[0,0,0,0,0,0,0,0,0,0,0],"sum_hessian":[4.0683014E1,2.2842076E0,3.8398808E1,1.1701746E0,1.1140331E0,3.452495E1,3.8738582E0,3.1971648E0,3.1327784E1,2.3449717E0,1.5288866E0],"tree_param":{"num_deleted":"0","num_feature":"903","num_nodes":"11","size_leaf_vector":"0"}},{"base_weights":[1.9555252E-2,8.18842E-1,-1.115225E-1,-8.175595E-2,1.0183749E0,-4.5740247E-1,2.089473E-1,3.5375E-1,4.0033393E-2,-1.4884844E-1,6.3279346E-2,-8.428745E-2,1.4696649E-1],"categories":[],"categories_nodes":[],"categories_segments":[],"categories_sizes":[],"default_left":[0,0,0,0,0,0,0,0,0,0,0,0,0],"id":89,"left_children":[1,3,5,-1,7,9,11,-1,-1,-1,-1,-1,-1],"loss_changes":[6.2025685E0,2.0932384E0,5.7478275E0,0E0,8.757129E-1,7.4805117E-1,3.875119E0,0E0,0E0,0E0,0E0,0E0,0E0],"parents":[2147483647,0,0,1,1,2,2,4,4,5,5,6,6],"right_children":[2,4,6,-1,8,10,12,-1,-1,-1,-1,-1,-1],"split_conditions":[0E0,0E0,2.5237894E-2,-8.175595E-2,1E0,1E0,1.8827087E-1,3.5375E-1,4.0033393E-2,-1.4884844E-1,6.3279346E-2,-8.428745E-2,1.4696649E-1],"split_indices":[460,425,789,0,666,150,671,0,0,0,0,0,0],"split_type":[0,0,0,0,0,0,0,0,0,0,0,0,0],"sum_hessian":[5.733086E1,7.338023E0,4.9992836E1,1.0776948E0,6.2603283E0,2.3837725E1,2.6155113E1,5.0163608E0,1.2439679E0,2.2774563E1,1.0631617E0,9.532413E0,1.6622702E1],"tree_param":{"num_deleted":"0","num_feature":"903","num_nodes":"13","size_leaf_vector":"0"}},{"base_weights":[-4.444184E-1,1.3871077E-1,-1.4929497E-1,2.1853642E-1,-9.920388E-2],"categories":[],"categories_nodes":[],"categories_segments":[],"categories_sizes":[],"default_left":[0,0,0,0,0],"id":90,"left_children":[1,3,-1,-1,-1],"loss_changes":[1.1933389E0,1.2960825E0,0E0,0E0,0E0],"parents":[2147483647,0,0,1,1],"right_children":[2,4,-1,-1,-1],"split_conditions":[0E0,5.367197E-3,-1.4929497E-1,2.1853642E-1,-9.920388E-2],"split_indices":[312,575,0,0,0],"split_type":[0,0,0,0,0],"sum_hessian":[3.5220356E1,2.8118527E0,3.24085E1,1.0015652E0,1.8102875E0],"tree_param":{"num_deleted":"0","num_feature":"903","num_nodes":"5","size_leaf_vector":"0"}},{"base_weights":[1.4303826E-1,-1.6197185E-1,5.7593894E-1,-2.7370867E-1,6.2011343E-1,2.3786758E-1,9.007158E-1,2.2968973E-1,-1.17074125E-1,3.5601163E-1,-1.0126209E-1,